,0,1,2,3,4,5,6,7,8,9,10,11,12,13,14,15,16,17,18,19,20,21,22,23,24,25,26,27,28,29,30,31,32,33,34,35,36,37,38,39,40,41,42,43,44,45,46,47,48,49,50,51,52,53,54,55,56,57,58,59,60,61,62,63,64,65,66,67,68,69,70,71,72,73,74,75,76,77,78,79,80,81,82,83,84,85,86,87,88,89,90,91,92,93,94,95,96,97,98,99
A,0.010952858,-0.027417082,-0.059976462,0.05437817,0.114705265,0.2264811,0.028039575,0.13385826,-0.017710028,-0.037919782,0.18137708,0.15043738,0.055310234,-0.00324158,0.12696856,0.08056762,0.119121395,0.0012613214,-0.08044812,0.07500577,-0.022905843,-0.03255721,-0.030168917,0.0121331215,0.059705086,-0.010667104,-0.065400824,0.107155964,0.20469706,0.08007999,0.07416673,0.0010617822,-0.06726903,0.014303474,0.1144989,0.1982741,0.17323342,0.04857844,0.25943956,0.0413025,0.107386164,0.003655471,0.0153349675,0.07509306,-0.038237557,-0.016228335,0.22702155,0.13551642,0.042140983,-0.02129766,0.029271353,0.11089455,-0.012273783,0.22013767,-0.038790204,0.115333736,0.041755635,-0.03801477,-0.035294697,0.036101203,0.16754606,0.034740217,0.36471477,0.101391315,0.20047736,0.14921112,0.060570337,0.0990807,-0.021239027,0.19862853,0.0942765,0.0107767135,-0.07537036,0.09043305,0.08483039,0.06010903,0.09224838,0.037141655,0.12358896,-0.021892037,0.09361237,0.17451605,0.22449228,-0.0123090455,0.05828345,0.08502656,0.032382663,0.27138454,0.022979427,0.22679502,0.016253464,0.21242177,0.25591385,0.07031852,0.17649676,0.01611619,0.16492498,0.008597616,0.0321107,-0.0033563636
AAL,0.06140639,-0.018639077,-0.04812648,0.057157584,0.12186898,0.22271782,0.025111355,0.13391718,-0.0061566755,-0.040269338,0.18307693,0.1292027,0.10692732,-0.00037660263,0.12764558,0.08119522,0.17727399,0.0076220813,-0.07845274,0.10899262,-0.018019823,-0.034631733,-0.027788261,0.012971181,0.059816703,-0.004052691,-0.06695872,0.11765389,0.19935967,0.07819401,0.07352127,-0.017852586,-0.04975564,0.028727368,0.16813105,0.1853,0.17471355,0.09073615,0.25874016,0.012220334,0.16678746,-0.009027302,0.014105387,0.084110655,-0.035802945,-0.016210567,0.22188477,0.13313821,0.044304818,-0.01992374,0.023033688,0.104029536,-0.007758118,0.14925927,-0.04537631,0.11609462,0.044854358,-0.038498487,-0.034538712,0.03956168,0.16767435,0.033164613,0.24668023,0.09658324,0.20276356,0.15373088,0.066254124,0.08134098,-0.024550324,0.16282149,0.10258177,0.000135798,-0.073845044,0.101300895,0.063507125,0.06775074,0.08913885,0.022470884,0.12426125,-0.021766707,0.09610294,0.17610005,0.16878913,-0.02820985,0.05307231,0.090109944,0.0317632,0.19958663,0.023148872,0.2356053,0.009049219,0.19568583,0.25671852,0.081340946,0.1766049,0.013447955,0.16789587,0.009292297,0.029167008,-0.020555746
AAP,0.056909677,-0.022013295,-0.049651906,0.05384452,0.11490275,0.22400995,0.027293667,0.13341072,-0.013258912,-0.019632243,0.1845181,0.1106275,0.12579581,-0.005717151,0.12675007,0.08038696,0.20981804,-0.012047958,-0.077114776,0.14296749,-0.022318972,-0.033802688,-0.021396007,0.013673879,0.06288446,-0.0092528295,-0.057030596,0.1033747,0.1987793,0.08057047,0.07504774,-0.038651787,-0.068993986,0.02412332,0.2033012,0.18996726,0.1764448,0.10635772,0.25342372,-0.011472229,0.19013506,-0.0052477643,0.005249355,0.0811899,-0.037111025,-0.009750199,0.21867338,0.13547613,0.042661592,-0.03081157,0.028247867,0.13457917,-0.0046709925,0.112169914,-0.04918062,0.11433751,0.042527646,-0.049820088,-0.032460608,0.03430791,0.16757233,0.034912366,0.20937023,0.09839671,0.1986409,0.14660358,0.061232045,0.046415206,-0.016893474,0.13865763,0.088953,-0.01246224,-0.075425565,0.09880789,0.0556033,0.06835782,0.08747609,0.022318851,0.13598603,-0.020824412,0.09372694,0.17203692,0.10401994,-0.036746822,0.030126385,0.081261136,0.022828178,0.15102659,0.024266679,0.2394458,0.00912136,0.18639323,0.26087534,0.0698524,0.17766261,0.022784628,0.16925569,0.010261737,0.026867893,-0.03886159
AAPL,0.02268006,-0.021898586,-0.052613508,0.056719825,0.1160463,0.2216183,0.02636651,0.13397028,-0.010897366,-0.049781967,0.18415797,0.10814705,0.06198784,-0.0094984695,0.12630942,0.08113469,0.11600372,0.0023485287,-0.07892445,0.080936596,-0.020487683,-0.03346531,-0.026214177,0.0130043775,0.059961915,-0.008924974,-0.064529836,0.0994511,0.20091951,0.079468764,0.07451813,-0.038001396,-0.059386604,0.019399544,0.118464924,0.18856648,0.17484751,0.051368684,0.25291434,0.020430723,0.10411135,-0.006322868,-0.013501994,0.077620864,-0.04081656,-0.018111011,0.21941672,0.1372004,0.04147657,-0.035007205,0.02902031,0.09678835,-0.009585431,0.17931758,-0.047971316,0.11603447,0.041348804,-0.049934223,-0.035631176,0.037554998,0.16686833,0.03460886,0.30974913,0.09826601,0.19955456,0.1495214,0.060526125,0.057328407,-0.0260937,0.15648806,0.099844255,-0.01746137,-0.07442167,0.08819983,0.075794086,0.06276491,0.085203886,0.011955222,0.118651986,-0.022122815,0.09372929,0.17204982,0.19873664,-0.031863023,0.06846456,0.085931405,0.032443404,0.24066657,0.021896794,0.22683105,-0.0037234882,0.18706511,0.25895745,0.08675256,0.17825083,0.008149624,0.17007816,0.009005617,0.028361317,-0.026563939
ABBV,0.10524988,-0.017036587,-0.057085562,0.05345258,0.11908902,0.2266167,0.024641301,0.13399138,-0.011836283,-0.007862918,0.1824857,0.15528145,0.20796031,0.014579773,0.12667286,0.07969378,0.30367392,-0.007833367,-0.08039007,0.21708724,-0.025377085,-0.032945033,-0.018807394,0.016773634,0.07962544,-0.011648166,-0.051817164,0.13270289,0.19737796,0.082899034,0.07099706,0.028659321,-0.05993633,0.053409968,0.3155049,0.18028496,0.17574422,0.1647573,0.24833113,0.11511399,0.2656867,0.029729012,0.05105973,0.088550374,-0.03305003,7.2659925e-05,0.22454348,0.13432634,0.040684152,-0.008636749,0.028537918,0.1593485,0.0034035556,0.38732392,-0.023687,0.11370854,0.041817933,-0.0116450265,-0.034095854,0.036754705,0.16771042,0.03366813,0.625208,0.09791557,0.1975359,0.15071373,0.06414887,0.15009308,-0.021324482,0.30821177,0.11902149,0.046448193,-0.07526743,0.111459576,0.14831868,0.061724845,0.09104173,0.053042997,0.13887195,-0.021128368,0.092956565,0.17390743,0.4057752,0.016560819,0.07985313,0.094142586,0.05244007,0.48026013,0.026463259,0.22879846,0.059274256,0.2143093,0.2612259,0.07008052,0.17606068,0.031139288,0.17409188,0.013233762,0.04174896,0.04663364
ABC,0.028410323,-0.031053286,-0.054231513,0.054898627,0.11888252,0.22053939,0.026153125,0.13347381,-0.01133059,-0.04103151,0.18294957,0.13624641,0.09761084,-0.0074365884,0.12738338,0.07773992,0.16244248,-0.005560161,-0.08263536,0.10495856,-0.020854173,-0.033474863,-0.03061478,0.01298653,0.060548536,-0.0054049226,-0.061905272,0.09834038,0.2032428,0.07943605,0.06919826,-0.018013086,-0.071038246,0.006081052,0.17827749,0.19098136,0.17392327,0.07929289,0.25607246,-0.020249885,0.13682319,-0.0107857175,-0.01238795,0.075544566,-0.040411882,-0.015360637,0.22327003,0.13555083,0.04625924,-0.03364989,0.027327873,0.12477316,-0.0061928835,0.08424305,-0.041643247,0.11721177,0.0425484,-0.041478798,-0.034082867,0.037053403,0.16699368,0.036502305,0.16263476,0.09970924,0.19821419,0.14675044,0.059851397,0.06738595,-0.0255981,0.0925944,0.08875712,-0.017494813,-0.074146844,0.09065584,0.050627604,0.061548326,0.08934022,0.027076252,0.1270886,-0.020882413,0.095441446,0.17086245,0.091863334,-0.031220932,0.04169357,0.07820718,0.023259794,0.13755679,0.021904338,0.22238582,-0.014788032,0.20013168,0.25482866,0.072668105,0.17671551,0.0029144846,0.16550739,0.009329118,0.028455049,-0.026998423
ABMD,0.14487393,-0.010538984,-0.014357731,0.061354633,0.13362682,0.21814138,0.044292405,0.13915756,-0.013833545,0.003422834,0.18248585,0.16827562,0.25625822,-0.008087408,0.12892218,0.07724087,0.3634674,0.031072685,-0.08075996,0.29155678,-0.022383729,-0.017761366,-0.010415766,0.012111861,0.06356794,-0.0025149584,-0.051021025,0.20745409,0.20365489,0.07940196,0.0919929,0.07942692,-0.045139335,0.11646657,0.39665386,0.24487513,0.17691812,0.18997669,0.30198583,0.27383748,0.34447783,0.09537184,0.1645767,0.13962705,-0.021541089,0.0038220827,0.21824858,0.1343913,0.047539596,0.04443247,0.025470987,0.13729128,-0.002371408,0.75581425,-0.011243765,0.117568314,0.044858657,0.04137139,-0.03470957,0.035606295,0.17829287,0.03609799,1.1703699,0.103152536,0.19950633,0.16159013,0.068300255,0.3264765,-0.0059064254,0.5571066,0.13929108,0.11828677,-0.074241415,0.17217079,0.29702234,0.065844096,0.09551116,0.044380344,0.19972768,-0.020568877,0.10327666,0.17146638,0.77787226,0.071026266,0.14679322,0.10286885,0.11033979,0.9201883,0.03274405,0.259639,0.1635181,0.1950822,0.27378848,0.100740835,0.17547075,0.022959534,0.18639119,0.010330915,0.026694726,0.16640978
ABT,0.0059208535,-0.02141533,-0.052635133,0.05204144,0.11528394,0.22459126,0.02586887,0.13372873,-0.0121040065,-0.060330775,0.18345654,0.11141205,0.036596157,-0.008237779,0.12573329,0.07958727,0.09129143,-0.0147423465,-0.080792785,0.045189857,-0.020129,-0.034200363,-0.0352033,0.013126865,0.05660314,-0.011112876,-0.070457645,0.09006024,0.19683865,0.08101858,0.06949255,-0.037847325,-0.061400585,-0.0012481865,0.07072641,0.17727132,0.17533113,0.034655474,0.24480097,-0.048921026,0.08059822,-0.0031555817,-0.02477212,0.07318254,-0.039629307,-0.017060112,0.21707432,0.13679114,0.03948681,-0.057080016,0.028535485,0.088888556,-0.010132724,0.018038206,-0.04858553,0.115619734,0.040220566,-0.04326502,-0.033924762,0.037012566,0.1669914,0.033888273,0.051158357,0.098657146,0.1980184,0.15159637,0.060717627,0.03286823,-0.030835591,0.063664734,0.09175883,-0.026632376,-0.07538755,0.087204866,0.022931417,0.0605139,0.084754854,0.013967391,0.124092765,-0.022347081,0.09329507,0.17199962,0.020822309,-0.043116752,0.032573298,0.0767131,0.01520931,0.04718183,0.020955488,0.22928733,-0.03260732,0.1852869,0.25226405,0.0734421,0.17714304,0.0072100796,0.16166386,0.008893684,0.026906144,-0.05189971
ACN,-0.009703685,-0.029078603,-0.053567518,0.051979586,0.116326034,0.22162504,0.02149102,0.13237032,-0.013031149,-0.035275508,0.18021046,0.11923236,0.019822516,-0.0023907647,0.1248733,0.07950366,0.059279107,-0.0062663755,-0.081433125,0.04175549,-0.021431869,-0.034670375,-0.027300645,0.013727073,0.059776895,-0.012591584,-0.06661354,0.09061788,0.19538376,0.08038289,0.06870888,-0.021835536,-0.07119922,-0.0046564974,0.066131294,0.17642362,0.17325175,0.0014341469,0.24437523,-0.019299129,0.04628408,-0.0013028532,-0.025923355,0.07364762,-0.040508494,-0.018232968,0.21657225,0.13626367,0.039598323,-0.04450526,0.028808115,0.09988884,-0.0075330473,0.089006,-0.04410396,0.11640163,0.039492413,-0.04337214,-0.0348693,0.036338422,0.16756026,0.034681827,0.16502742,0.09837973,0.19883531,0.1470137,0.060685035,0.07156322,-0.030375581,0.06932587,0.09031584,-0.03154278,-0.074868925,0.084983006,0.05234114,0.06456137,0.089219876,0.02968553,0.124275014,-0.02127637,0.092891276,0.17106017,0.086968906,-0.027515732,0.032406278,0.084166534,0.015603919,0.13706394,0.021370046,0.22222693,-0.029537782,0.19335426,0.25784004,0.069111034,0.1777738,0.01018507,0.16972262,0.00978842,0.030162897,-0.018170062
ADI,0.016710829,-0.02675455,-0.056208625,0.05476657,0.11630929,0.22009607,0.023373857,0.13481128,-0.012572395,-0.042993568,0.1815095,0.11485244,0.052673228,-0.0027484335,0.1257937,0.07924445,0.10517766,-0.00015909644,-0.08122741,0.07488428,-0.022577295,-0.031882994,-0.029123057,0.012061726,0.06385378,-0.011958672,-0.060447577,0.09811558,0.20026913,0.07943276,0.07060475,-0.04048201,-0.06807098,0.015360169,0.10865854,0.18581916,0.17366868,0.031071179,0.25080252,-0.032422654,0.087767385,-0.002031479,-0.013562743,0.07791328,-0.039019763,-0.015268383,0.21929649,0.13670114,0.038851827,-0.035103183,0.029469887,0.09463783,-0.010674108,0.055285156,-0.046362273,0.114612415,0.040226426,-0.045378346,-0.034724943,0.037062056,0.1676179,0.033698596,0.11664958,0.10124921,0.19859867,0.1483111,0.06328613,0.03614442,-0.025304599,0.0827755,0.08881874,-0.020027626,-0.07460751,0.09285966,0.030219117,0.05999426,0.085777305,0.01624921,0.12299651,-0.022406153,0.09236416,0.17327474,0.06660771,-0.04035427,0.04229044,0.077663526,0.017987363,0.087687775,0.020863783,0.22583984,-0.017370667,0.19445978,0.2548779,0.0760179,0.17805766,0.007128205,0.1650338,0.010990124,0.029950377,-0.057024382
ADM,0.002750095,-0.031799924,-0.05133994,0.05180888,0.11672105,0.22218043,0.023145743,0.13259512,-0.010483988,-0.06009492,0.18120815,0.092268124,0.03552311,-0.0118425265,0.12690878,0.078605615,0.08003987,-0.003088186,-0.08108975,0.056993954,-0.019328887,-0.033095255,-0.03373107,0.015899293,0.05907224,-0.009686699,-0.07201594,0.09866219,0.19527355,0.08085628,0.07101328,-0.031873826,-0.07651566,0.005603349,0.0854923,0.180839,0.17358707,0.015128805,0.24826156,-0.030883515,0.066036135,-0.0043726563,-0.012462936,0.07748583,-0.039430313,-0.018546125,0.21587054,0.13634226,0.04111956,-0.039777637,0.029267777,0.080140494,-0.0056326166,0.05636424,-0.054823436,0.11551677,0.04144832,-0.045504298,-0.035207517,0.03671826,0.16691943,0.03427372,0.101322085,0.09671347,0.197287,0.14523643,0.060182363,0.006716378,-0.029609792,0.1008194,0.07891344,-0.019334689,-0.07352693,0.08696079,0.02632596,0.0658582,0.08423347,0.010729389,0.123098224,-0.023058493,0.09378028,0.17016348,0.041417986,-0.041296985,0.013881251,0.0702681,0.024678197,0.07050944,0.020210292,0.22981296,-0.01468783,0.18054152,0.25208694,0.063779876,0.17677145,0.0022250675,0.16271426,0.007689558,0.024144586,-0.067537986
ADP,-0.023399344,-0.028442085,-0.05569986,0.053178363,0.117134035,0.22244303,0.023753762,0.13455512,-0.014068095,-0.04961161,0.18192643,0.10884872,-0.004540369,-0.010911627,0.12610972,0.08001149,0.03771155,-0.013804844,-0.0809952,0.008440323,-0.021349153,-0.034141213,-0.0317171,0.013324123,0.05960693,-0.010212163,-0.06544188,0.08827827,0.19657312,0.08089306,0.06875166,-0.04051689,-0.06812367,-0.018197276,0.026350943,0.18093935,0.1744111,-0.0010000118,0.24808781,-0.04523972,0.030959278,-0.004711617,-0.027484108,0.07234483,-0.038975053,-0.019329302,0.21568722,0.13568737,0.041784994,-0.05364126,0.028916553,0.090115346,-0.008924235,0.035155624,-0.050122526,0.11450735,0.04072957,-0.04397198,-0.034033358,0.035747122,0.16688871,0.034995854,0.07353084,0.10073178,0.19737378,0.14944825,0.061086807,0.028844409,-0.030484246,0.045383655,0.08909331,-0.031516884,-0.07489383,0.08573519,0.021721436,0.06228598,0.088048495,0.014223766,0.12393841,-0.021213684,0.09328558,0.17408799,0.04684096,-0.0438998,0.032075934,0.07331811,0.013460111,0.065104805,0.01998357,0.2231144,-0.032139856,0.18522453,0.25523454,0.06964356,0.177323,0.0048883893,0.16529013,0.009379242,0.028829195,-0.053464763
ADSK,0.15147695,-0.0072656013,-0.0571827,0.055610485,0.11881556,0.21776706,0.024855472,0.13531682,-0.01650306,0.025548887,0.18318908,0.1185033,0.24891609,-0.0008182172,0.12470722,0.07990478,0.36259997,-0.0011468981,-0.08122936,0.26252759,-0.023586506,-0.033270724,-0.00718078,0.012444723,0.06066316,-0.011766288,-0.046755463,0.10616725,0.20176792,0.08150219,0.0699117,-0.0343946,-0.04441478,0.082291715,0.37377757,0.19551873,0.17441203,0.20902579,0.2603547,-0.015317375,0.34363464,-0.0025515482,0.0007644966,0.07977842,-0.036102116,0.007016305,0.22052811,0.13815355,0.039465174,0.019538846,0.02923902,0.1751144,0.017220873,0.09931784,-0.04815904,0.116416834,0.038956124,-0.041926444,-0.035311513,0.03557127,0.16746637,0.034817245,0.16512248,0.10093592,0.19920097,0.15184656,0.06242737,0.04628441,-0.0039802417,0.12826723,0.098142065,-0.009296358,-0.07488231,0.09512094,0.045331568,0.070336565,0.090312034,0.018585807,0.12509046,-0.022512265,0.09290207,0.17187996,0.092038214,-0.03875508,0.04301843,0.08060765,0.023704441,0.12192642,0.023640685,0.22434856,-0.00435937,0.19067538,0.25796586,0.07614556,0.17817101,0.029035747,0.17564917,0.0128254555,0.03039185,-0.04592957
AEE,-0.039799232,-0.03149122,-0.051713202,0.05166749,0.116176575,0.22534767,0.023744926,0.13564861,-0.012271393,-0.06375926,0.1809569,0.100647956,0.00079974905,-0.010387778,0.12519902,0.07975838,0.037207097,-0.022271195,-0.081104115,0.011231385,-0.020436281,-0.03321653,-0.03421251,0.014045559,0.055880696,-0.011130886,-0.0698186,0.08061102,0.1950752,0.08348901,0.073149994,-0.036729816,-0.08004618,-0.036496956,0.047107503,0.17814289,0.17498316,-0.0044212756,0.24536447,-0.0475533,0.017096339,-0.0032647625,-0.030700171,0.06995134,-0.039696947,-0.018356197,0.21680444,0.1363616,0.03998009,-0.062396996,0.028939152,0.09225966,-0.012672102,0.033823214,-0.055327766,0.117824,0.039177094,-0.05063595,-0.034099266,0.03766355,0.16698603,0.035155125,0.062449828,0.09787557,0.19683105,0.14502195,0.060537435,0.028954234,-0.029932693,0.038552027,0.08965915,-0.041744854,-0.07530584,0.08735866,0.0030548777,0.06019919,0.08513276,0.015138403,0.119977355,-0.021060117,0.0937503,0.17171113,0.041549124,-0.047523007,0.030723669,0.07267554,0.008071709,0.050558403,0.019993708,0.22088854,-0.039406307,0.18259506,0.251358,0.06730457,0.1779559,0.0003787987,0.16012736,0.008093666,0.024225585,-0.06917804
AEP,-0.060229767,-0.032856584,-0.0511082,0.05202199,0.11558379,0.22281463,0.022333857,0.13577044,-0.0111631695,-0.060297854,0.18129604,0.09628058,-0.047434025,-0.01167855,0.12566428,0.08034435,-0.0266494,-0.021123387,-0.08167675,-0.023870721,-0.01978908,-0.032887965,-0.033759948,0.013575181,0.05286228,-0.01092458,-0.071667284,0.08222206,0.1930363,0.08267613,0.07120628,-0.03328818,-0.08180241,-0.037977777,-0.025490133,0.18037437,0.1748563,-0.05473313,0.24745114,-0.072468996,-0.036038555,-0.0046655573,-0.03163392,0.07090792,-0.03976138,-0.018627942,0.21717839,0.13639677,0.04099095,-0.064336196,0.029039903,0.07336512,-0.012917995,-0.019215435,-0.054762136,0.11702781,0.03978304,-0.047436617,-0.033720527,0.037474662,0.16744056,0.03530673,-0.013939932,0.098379806,0.19624074,0.14455816,0.06057851,0.012888171,-0.03136751,0.03411626,0.082918406,-0.042270694,-0.07495389,0.088241175,-0.0041660555,0.05934119,0.085203245,0.011733051,0.122348815,-0.021305319,0.09402938,0.17126094,-0.017436977,-0.046167392,0.019745559,0.073581025,0.0066436995,-0.009614244,0.02030424,0.22232741,-0.033056907,0.18092433,0.25126922,0.065620594,0.1776316,0.0020607635,0.15980893,0.0076346137,0.023758993,-0.08014952
AES,0.0006988868,-0.028115492,-0.051630225,0.05406765,0.11586581,0.22224508,0.02512382,0.13462466,-0.013424061,-0.036371738,0.18212226,0.121784605,0.057639547,-0.0004659705,0.124234684,0.08033764,0.110263325,-0.016903905,-0.08138939,0.062435016,-0.022751583,-0.033684686,-0.029581942,0.014238495,0.06289767,-0.015008461,-0.058887515,0.09202276,0.19641414,0.08323466,0.07444329,-0.038422536,-0.074465916,-0.0025091898,0.12583035,0.177414,0.1750038,0.046940677,0.24530445,-0.031081535,0.08788597,0.0012591518,-0.023981417,0.07470465,-0.03995487,-0.01664517,0.21900037,0.13695812,0.035894945,-0.042497534,0.029224103,0.10252443,-0.005479833,0.07116023,-0.049491927,0.115264274,0.03820178,-0.04925136,-0.034501776,0.03726301,0.1693672,0.033193253,0.12945302,0.09673022,0.19871137,0.14784804,0.0654046,0.0427535,-0.02678788,0.063969575,0.09221645,-0.032489594,-0.07538363,0.09188995,0.030965183,0.063562155,0.08561947,0.019905291,0.11936612,-0.022634782,0.09290697,0.17085578,0.084053576,-0.04205261,0.04015459,0.0781487,0.015499987,0.103790194,0.02193258,0.22687109,-0.031934306,0.19265386,0.2515489,0.073874734,0.1776112,0.008198228,0.16247605,0.011297688,0.02712474,-0.051280055
AFL,-0.0145890005,-0.027314488,-0.054702878,0.051865533,0.114200085,0.22091536,0.023454681,0.13450415,-0.011799196,-0.049569815,0.18292737,0.12420827,0.024941824,-0.0020186715,0.12650096,0.07909895,0.08021408,-0.022477303,-0.08064617,0.04233592,-0.020700132,-0.033572502,-0.03285178,0.014115334,0.05955431,-0.011020137,-0.06954568,0.09923194,0.19242713,0.07977387,0.07338665,-0.01492602,-0.07322653,-0.029141868,0.0759147,0.17953528,0.17416334,0.026337221,0.24687208,-0.020736739,0.06787339,-0.003745325,-0.011919688,0.07839572,-0.03659752,-0.017606806,0.21562636,0.13700598,0.0401076,-0.062315878,0.029563772,0.10349269,-0.008038256,0.08974983,-0.052370667,0.1160935,0.041020393,-0.0360967,-0.03581913,0.036637127,0.16786818,0.034473885,0.1648942,0.09900417,0.19707114,0.1464844,0.06378353,0.060508475,-0.024488393,0.098811835,0.08564549,-0.02108546,-0.07423805,0.09113961,0.055796932,0.064006165,0.083855435,0.009840934,0.12029445,-0.02229203,0.093714684,0.16931063,0.085076824,-0.019522779,0.023689233,0.080187276,0.024817683,0.13310681,0.020605523,0.22686276,-0.005640212,0.17854688,0.2506414,0.06608775,0.17731452,0.012059987,0.16248433,0.008340426,0.025232188,-0.021128511
AIG,0.01911779,-0.027693287,-0.05625351,0.054340754,0.11483176,0.217398,0.024621323,0.13424543,-0.012784412,-0.060094446,0.18212557,0.11529206,0.06196617,-0.011941597,0.12681158,0.08024427,0.11539225,0.006909141,-0.08073721,0.08193033,-0.021078022,-0.03246326,-0.03434267,0.01233374,0.057429954,-0.010539159,-0.07267757,0.0952342,0.1983946,0.07840389,0.07165478,-0.03846789,-0.07220812,0.019955145,0.121660545,0.18974221,0.17317279,0.038782902,0.2500588,0.013916932,0.09963569,-0.0044426285,-0.007308675,0.075363755,-0.03859189,-0.017974298,0.22075091,0.13675243,0.042534992,-0.030340029,0.030861065,0.09209592,-0.008735092,0.15135264,-0.048581608,0.11574556,0.041792706,-0.046843573,-0.035511624,0.03599691,0.1673597,0.035880297,0.26121756,0.10022287,0.19786325,0.14785366,0.06059293,0.04430375,-0.028452532,0.15539563,0.087089635,-0.00041727722,-0.07416434,0.086376555,0.057319053,0.062487632,0.08678433,0.017734442,0.12180587,-0.023720957,0.09423825,0.17264679,0.1518461,-0.025425084,0.03172426,0.07407485,0.022854038,0.18623897,0.021803884,0.2312072,-0.0037059854,0.19141507,0.25088185,0.06799138,0.17630489,0.009246096,0.16037625,0.009494532,0.024813503,-0.037167795
AIZ,0.02788749,-0.0260383,-0.053072482,0.051668063,0.117961556,0.22227933,0.029173799,0.13501187,-0.012430286,-0.043375887,0.18420559,0.1027929,0.08347638,-0.005770512,0.12637576,0.080352455,0.1457925,0.0070161303,-0.07901089,0.112134025,-0.020934438,-0.033226635,-0.025137806,0.013020609,0.058805175,-0.011478977,-0.06814405,0.089825675,0.20797545,0.08021796,0.07696418,-0.041458093,-0.06605822,0.037930977,0.15020572,0.2075167,0.17519395,0.054153554,0.27562523,-0.0637209,0.12728256,-0.002277609,-0.023748549,0.07240102,-0.039755084,-0.011724245,0.21786538,0.13659601,0.040287115,-0.021708792,0.029670289,0.09371565,-0.009495284,-0.008684538,-0.050712556,0.1149875,0.040879637,-0.052539095,-0.03468515,0.035799004,0.16707711,0.034890182,0.0057053976,0.09749518,0.19682714,0.14821526,0.06075926,0.025114868,-0.022719458,0.05432553,0.08930488,-0.034489464,-0.07508844,0.08971475,0.013774311,0.06214333,0.086980075,0.013341758,0.117303565,-0.021962985,0.09354271,0.17112316,-0.0073992945,-0.043275073,0.021938741,0.07630286,0.014876686,0.0154750645,0.020488173,0.22553821,-0.033526465,0.18512014,0.2555666,0.06591689,0.17731738,0.0066770427,0.16925068,0.00839277,0.02587508,-0.05925654
AJG,-0.005718233,-0.030586608,-0.054023795,0.05122892,0.11465125,0.21936266,0.023550149,0.13550851,-0.012289895,-0.054152045,0.18257216,0.09895104,0.05546171,-0.0059190206,0.126853,0.0795872,0.10537179,-0.019943176,-0.079341345,0.06372448,-0.022868367,-0.033178918,-0.036371328,0.015496552,0.06965353,-0.010564103,-0.065332346,0.08988941,0.19548135,0.080846086,0.07237668,-0.042954437,-0.07426551,-0.023688924,0.11151413,0.1792158,0.1741379,0.039624076,0.2471403,-0.060535453,0.07867938,-0.003590066,-0.023166418,0.07287958,-0.040113896,-0.018068083,0.21668737,0.1358903,0.04090992,-0.055463523,0.029187713,0.11229101,-0.008153424,0.0027522445,-0.053003397,0.11635157,0.041344546,-0.04843994,-0.03549318,0.03573494,0.16661853,0.03433027,0.018499542,0.09682615,0.19667259,0.14714673,0.06054093,0.013084769,-0.03386854,0.06476402,0.082612805,-0.030983072,-0.07461788,0.08416915,0.006573934,0.06402305,0.084893934,0.011306774,0.12036664,-0.02144833,0.09333808,0.1701028,-0.023218863,-0.049891576,0.01742185,0.07073335,0.016640931,0.005426936,0.020407267,0.22498555,-0.028899595,0.18188821,0.25097674,0.06687472,0.1771945,0.014384743,0.16117404,0.009958953,0.025739387,-0.06632721
AKAM,0.18497889,-0.0024074689,-0.05358189,0.057759035,0.11447444,0.22291157,0.024515614,0.13410087,-0.013353255,0.04097452,0.1843266,0.11667006,0.2939272,-0.0056115575,0.1259754,0.079329655,0.4226605,0.0013661459,-0.08188705,0.30969846,-0.020504752,-0.03226831,-0.0032991413,0.013707273,0.06457677,-0.009413576,-0.04574619,0.10177664,0.19883034,0.07963187,0.07290263,-0.042565666,-0.036042534,0.10737482,0.43193132,0.18942437,0.17483252,0.24549937,0.256098,-0.0298891,0.40064466,-0.0048908517,-0.003580898,0.07737894,-0.038595375,0.0013895724,0.21813226,0.13560343,0.042221583,0.02591526,0.02799188,0.1869282,0.014922354,0.06973327,-0.049685977,0.11703746,0.04119263,-0.04412453,-0.035448845,0.03637651,0.16686843,0.03512144,0.118855916,0.09819091,0.1990761,0.1484589,0.060806975,0.028781883,-0.0009107031,0.10784805,0.089705005,-0.0158903,-0.07478917,0.09467712,0.03429439,0.060565293,0.08687191,0.016333638,0.12417803,-0.021127973,0.09371641,0.17201084,0.046151504,-0.04065047,0.030732267,0.07525805,0.024877334,0.08754121,0.02086002,0.22534846,-0.012118297,0.18823108,0.25632071,0.072723486,0.1774342,0.03622601,0.16993688,0.0093065575,0.027502205,-0.056281712
ALB,0.053889487,-0.026529983,-0.046492465,0.054340996,0.1266442,0.22245948,0.03293474,0.1317864,-0.010875937,-0.048328213,0.18391272,0.14682037,0.12686193,0.005452659,0.12811303,0.083811425,0.19542329,0.013970381,-0.07799704,0.15166558,-0.021306487,-0.033103194,-0.028262822,0.010312986,0.058468033,-0.005057565,-0.06690512,0.10349415,0.20825525,0.07891183,0.07894616,0.004161708,-0.06641729,0.055830106,0.20858723,0.22232983,0.17594507,0.089515716,0.2784336,0.014971036,0.17649934,-0.0098603405,0.016229358,0.08556306,-0.037697442,-0.008431332,0.22100402,0.13487464,0.045902103,-0.008067718,0.027236236,0.10537152,-0.012433261,0.17021334,-0.03609352,0.12143291,0.044413254,-0.03518991,-0.034198206,0.0392757,0.16791473,0.035783343,0.30023286,0.09797629,0.19950214,0.14995468,0.067433804,0.112960346,-0.023425696,0.15857083,0.09725551,-0.005700551,-0.075590044,0.101479955,0.08243884,0.06370687,0.08673522,0.04026275,0.13872036,-0.021191563,0.0960325,0.17296275,0.17822313,-0.010263258,0.047788076,0.08945692,0.031503197,0.2480301,0.021555234,0.23172937,0.009879445,0.21012548,0.2556975,0.0805982,0.17645007,0.010111652,0.16241409,0.0107079595,0.03859368,0.018139953
ALGN,0.1552085,-0.016307428,-0.01510293,0.062612176,0.1371268,0.22450797,0.050234787,0.13966523,-0.0029028617,-0.009597227,0.188826,0.19288726,0.26912943,0.000936877,0.12672791,0.08099753,0.37955397,0.036847267,-0.082004674,0.30375403,-0.025206825,-0.019903772,-0.02518662,0.010965757,0.06354399,-0.005862269,-0.04989998,0.20949255,0.20840321,0.078232035,0.09190895,0.088593625,-0.04456082,0.11980763,0.41250122,0.2562895,0.17753756,0.19991793,0.3073239,0.2833407,0.3597599,0.09371255,0.16890879,0.13754597,-0.01821959,0.0046573095,0.22414918,0.13515,0.045288555,0.04797405,0.026247613,0.10790652,-0.0025101826,0.7745055,-0.0064626206,0.116882764,0.042605914,0.046999104,-0.03258831,0.03854184,0.17310195,0.036080904,1.20162,0.10430604,0.20427325,0.15455219,0.062317014,0.33099192,-0.00999511,0.5696331,0.14717191,0.121495426,-0.075064614,0.17503062,0.30042097,0.06299473,0.09174085,0.06094789,0.20189196,-0.020652872,0.101458274,0.17762569,0.79542416,0.07544825,0.15115574,0.109200686,0.113238275,0.94832885,0.02997599,0.25662082,0.1748727,0.21043818,0.25963774,0.10082001,0.17654261,0.01686263,0.16976404,0.011593029,0.033342525,0.17970799
ALK,0.048822276,-0.025413018,-0.049588293,0.055696495,0.11915463,0.22128351,0.02438394,0.13368063,-0.01076635,-0.020547405,0.18261108,0.12437353,0.10812573,0.003059363,0.12602685,0.0806552,0.18238667,-0.014066318,-0.07941708,0.12386504,-0.021216163,-0.0339396,-0.01993867,0.014652338,0.06860067,-0.010276852,-0.06119148,0.0889903,0.19877326,0.08207271,0.06947005,-0.0135919005,-0.063709654,0.012173895,0.18300813,0.17892379,0.17518738,0.09133145,0.24877506,-0.029006911,0.16691762,-0.0028854497,-0.02484541,0.07339485,-0.0365552,-0.01900111,0.2202291,0.13510239,0.0398394,-0.03427258,0.02758092,0.12620002,-0.010746498,0.07497627,-0.0457235,0.11717782,0.04098815,-0.041450426,-0.03511957,0.03849591,0.16749552,0.032883048,0.14461403,0.093311675,0.19906493,0.1486381,0.06405298,0.06789597,-0.022785518,0.072619356,0.08963044,-0.033494838,-0.07566799,0.08718281,0.05355437,0.06499682,0.08927482,0.027398445,0.12468658,-0.022121724,0.09295303,0.17270395,0.07837222,-0.023161668,0.03787028,0.08638349,0.015392732,0.12286331,0.02025253,0.22923863,-0.009010606,0.19735768,0.26239145,0.076833285,0.17717506,0.018625058,0.172817,0.01115546,0.026905019,-0.023511596
ALL,-0.011877637,-0.026724067,-0.05324251,0.0528955,0.114979595,0.22143959,0.024660967,0.13448562,-0.0110815205,-0.06820299,0.18296137,0.1140862,0.030394446,-0.0049100854,0.12643659,0.08019127,0.07676778,-0.0017921696,-0.08166315,0.05644478,-0.019761922,-0.03326937,-0.036352187,0.012650553,0.05437713,-0.009298496,-0.07168655,0.085825816,0.20480564,0.079988524,0.0723875,-0.01993243,-0.06839439,0.009257548,0.07724988,0.19345576,0.17377138,0.0069969986,0.26061094,-0.02298898,0.061398692,-0.004435051,-0.027598877,0.07123938,-0.040560618,-0.01729324,0.21653229,0.13565098,0.042222403,-0.038484,0.02852415,0.07736637,-0.01342207,0.08421297,-0.043668568,0.116632186,0.04156608,-0.047560144,-0.035253648,0.037197776,0.16697864,0.035251714,0.15107018,0.09790027,0.19778979,0.14872797,0.061619587,0.06020239,-0.029982077,0.07501232,0.100376174,-0.03706846,-0.074661426,0.08603002,0.051598333,0.059165493,0.08474457,0.017209105,0.12182011,-0.021427836,0.09401995,0.17014723,0.075326696,-0.029729899,0.033158854,0.079723805,0.011201929,0.12970108,0.020534381,0.22681925,-0.015418152,0.19184203,0.25097448,0.07689896,0.1770148,0.0028724931,0.16150564,0.008663934,0.028560512,-0.026707027
ALLE,0.055081442,-0.029566638,-0.054163117,0.053673547,0.1269139,0.21609287,0.029248707,0.13383923,-0.011436231,-0.064457074,0.18142796,0.12262229,0.116961315,-0.008560326,0.12580013,0.07936166,0.19552758,0.010796441,-0.079877555,0.15291531,-0.021432074,-0.03381605,-0.032452382,0.013806894,0.061805323,-0.010500697,-0.066436425,0.09132765,0.196339,0.07786591,0.08399681,-0.03665913,-0.06984542,0.050611142,0.20077805,0.21304625,0.17458099,0.08459094,0.2777744,-0.046468616,0.17894067,-0.0036039464,-0.025523655,0.0736589,-0.039392013,-0.010183072,0.21861403,0.13547882,0.04071956,-0.011042012,0.027873158,0.080178365,-0.006718505,0.019667812,-0.04969641,0.11536375,0.040348165,-0.0451021,-0.03642973,0.0365766,0.16711481,0.03444621,0.06533368,0.098963656,0.19932707,0.14622773,0.06009306,0.040285334,-0.019031221,0.05392572,0.08419567,-0.032592934,-0.0731131,0.08545637,0.026955873,0.06418168,0.08460422,0.018316464,0.12302543,-0.020392552,0.093347326,0.17230764,0.02859065,-0.041342705,0.026697055,0.07599215,0.014029516,0.061299644,0.02062874,0.22220163,-0.03371665,0.19364667,0.25132474,0.06542048,0.17761937,0.0044978745,0.15965639,0.008756261,0.02801796,-0.050255936
AMAT,0.08775331,-0.021555807,-0.057358984,0.056539822,0.124086216,0.22382432,0.030307837,0.13673407,-0.012507571,-0.036737204,0.18220755,0.1388821,0.14689787,-0.0050718337,0.12565367,0.079593554,0.2280975,0.018767517,-0.07883173,0.16979241,-0.023063926,-0.032646243,-0.029574519,0.01101337,0.06294422,-0.011111204,-0.06049003,0.09745264,0.20666122,0.07916212,0.08722453,-0.010323044,-0.05934336,0.06556736,0.23105408,0.21437903,0.17335285,0.107383505,0.278116,-0.0062312484,0.20337051,-0.0030542165,0.0014324635,0.08019806,-0.039442953,-0.0010204334,0.22369555,0.13613859,0.039101895,-0.0044791717,0.02797871,0.111207336,-0.008497328,0.12098877,-0.03944936,0.11648671,0.040069524,-0.046237893,-0.03551394,0.03624671,0.17015389,0.03407133,0.21902099,0.10264505,0.19940244,0.15739454,0.062306788,0.081717014,-0.0164668,0.09799649,0.097729936,-0.013477366,-0.07498269,0.09728748,0.06886892,0.06206837,0.0886757,0.031042159,0.12212011,-0.021648621,0.092937075,0.17850626,0.13078576,-0.024449946,0.050010234,0.08203611,0.026872769,0.18456727,0.022098081,0.2291826,-0.008249989,0.20885704,0.25786304,0.07905143,0.17815925,0.0096209645,0.16815372,0.011096384,0.036904,-0.01767397
AMCR,0.009100402,-0.020414915,-0.052696373,0.051854324,0.11572699,0.21939966,0.022989698,0.13369307,-0.010988159,-0.024850126,0.18167675,0.12191075,0.04731199,-0.010397401,0.12576549,0.08143696,0.09714948,0.0025801496,-0.0810978,0.06920446,-0.020148968,-0.03251774,-0.02346943,0.013024066,0.05679188,-0.013480178,-0.06815444,0.09733142,0.1963991,0.08024665,0.06902753,-0.03697916,-0.06286163,0.013279555,0.102755606,0.1775594,0.17415355,0.03837406,0.24374178,-0.03814125,0.08425993,-0.0020712763,-0.010659017,0.077445656,-0.038765103,-0.019880407,0.22036147,0.13690226,0.039276853,-0.0367404,0.03168175,0.11262065,-0.008783931,0.046677805,-0.04411839,0.11725137,0.040055227,-0.041727006,-0.036328863,0.0367452,0.16814508,0.034451295,0.091034606,0.098953635,0.1967835,0.14782813,0.061622262,0.045720696,-0.024620166,0.09306057,0.08298693,-0.021990854,-0.07484367,0.08830754,0.03325009,0.062433627,0.09196125,0.021345844,0.12523748,-0.023548935,0.09261109,0.172026,0.042721856,-0.040286683,0.030449294,0.0732885,0.023373786,0.078136615,0.020483587,0.22843577,-0.018251456,0.1941331,0.2606598,0.065865114,0.17705989,0.0131159015,0.173953,0.008637413,0.024528123,-0.04439177
AMD,0.24699739,-0.0040060766,-0.054973505,0.06063124,0.13320468,0.2221375,0.049958467,0.13610631,-0.018396612,0.032274265,0.19168292,0.15355684,0.39354712,-0.0036892258,0.12728068,0.080487534,0.5400399,0.06649105,-0.07821573,0.41125318,-0.027354894,-0.032607507,-0.003792297,0.00940907,0.068543375,-0.0020896196,-0.045034323,0.119595006,0.23028651,0.08230154,0.11365262,0.03680252,-0.0360616,0.18948266,0.5619322,0.26784614,0.18241172,0.30107218,0.31685218,0.10155007,0.50305307,-0.0065394826,0.023907706,0.08667948,-0.029001832,0.0136984605,0.22028634,0.13748589,0.04110966,0.08642973,0.02819505,0.1633529,0.0102917515,0.36310506,-0.02197066,0.11681837,0.040896915,-0.019111149,-0.03428935,0.03337132,0.17301777,0.03440949,0.5780443,0.107673086,0.20574465,0.16024993,0.06490167,0.17937331,-0.0026920363,0.25599244,0.1299,0.006113883,-0.07642695,0.09701294,0.13450982,0.077609435,0.10432309,0.043072995,0.13157865,-0.020248268,0.09396762,0.17335176,0.3842201,0.0033752155,0.08560471,0.098338656,0.047734797,0.46723762,0.02561906,0.22889905,0.04637455,0.19530113,0.28440204,0.09488301,0.17828695,0.03694802,0.19708283,0.01208546,0.030097462,0.06796362
AME,-0.0015883632,-0.024299268,-0.054232728,0.05317238,0.114517204,0.22271492,0.022355258,0.1327849,-0.013910793,-0.043611743,0.1813537,0.11361948,0.030778654,-0.009806156,0.12564969,0.08111748,0.08647994,-0.014737252,-0.080654025,0.046656117,-0.02131992,-0.03437557,-0.031538658,0.01332549,0.059532437,-0.012252273,-0.06830293,0.08838374,0.19832724,0.08111229,0.07289062,-0.045025855,-0.06917068,-0.0143317245,0.08437075,0.18254715,0.17462887,0.02947504,0.25060174,-0.048987284,0.07919905,-0.0008958876,-0.025658831,0.07278302,-0.03771001,-0.02003805,0.2172517,0.13529813,0.039061494,-0.048734996,0.028764784,0.104677856,-0.008563286,0.02727393,-0.049210265,0.11587877,0.040674135,-0.04675987,-0.034571115,0.036712892,0.16710317,0.03358936,0.058296792,0.09877268,0.1984875,0.14867184,0.0612353,0.026367083,-0.022838617,0.048079047,0.08700204,-0.032531187,-0.07549672,0.08625096,0.018897716,0.06297817,0.08631722,0.01462603,0.12128048,-0.022276983,0.09295384,0.1727073,0.035327185,-0.044343002,0.029939264,0.07275935,0.012495436,0.04842203,0.019742964,0.2280111,-0.032222155,0.18951127,0.25279772,0.06972274,0.17675255,0.010624211,0.16089648,0.009443045,0.02692568,-0.05981725
AMGN,-0.0017660875,-0.02653129,-0.058095437,0.052699618,0.11818905,0.22220886,0.029542297,0.13348196,-0.015630335,-0.06165661,0.18300974,0.106262594,0.041405644,-0.005707545,0.1264425,0.08020599,0.09073916,-0.0038575926,-0.08131524,0.0711421,-0.022411866,-0.03309153,-0.032923244,0.013367601,0.064435095,-0.0116069,-0.06803786,0.09127515,0.20382342,0.08042121,0.07093005,-0.026669573,-0.06678369,0.013859233,0.09478162,0.19553287,0.17497167,0.015769586,0.26351622,-0.034056377,0.07532996,-0.004077334,-0.026442278,0.0720388,-0.038322054,-0.016812887,0.21766427,0.13677338,0.040481813,-0.03212245,0.0299309,0.080657944,-0.010965463,0.0637189,-0.04317878,0.11509282,0.040806506,-0.044549033,-0.03428934,0.03632706,0.16765611,0.03437078,0.12044169,0.100187644,0.19689333,0.14902282,0.061051503,0.053697467,-0.025947664,0.06069018,0.093838125,-0.02839034,-0.074928194,0.08822417,0.042870253,0.05929285,0.08784186,0.014905229,0.12340451,-0.023451783,0.09381503,0.17031507,0.05510234,-0.033525467,0.02726204,0.07865919,0.013977591,0.10333046,0.020390738,0.2291273,-0.02392298,0.1825032,0.25245067,0.06962001,0.1763929,0.007295564,0.16231933,0.010714512,0.02878721,-0.03571082
AMP,-0.008933451,-0.02284884,-0.049875725,0.05371367,0.118134454,0.22153291,0.024165474,0.13249671,-0.010885576,-0.05674368,0.18316233,0.11267766,0.021874186,-0.0029332545,0.12598453,0.08085583,0.061946943,-0.007654225,-0.081653506,0.041566394,-0.02041032,-0.032737873,-0.030738939,0.015635226,0.06635271,-0.010760036,-0.06693494,0.0980148,0.1997844,0.079945415,0.0705093,-0.034125,-0.0640634,-0.0006414093,0.068159975,0.1866987,0.1733322,0.014114693,0.25507718,-0.020340456,0.053601444,-0.0033531412,-0.014534898,0.07600513,-0.038553946,-0.016849365,0.21852404,0.13621439,0.040304143,-0.044575475,0.028324367,0.09495273,-0.008773597,0.09081516,-0.049361993,0.11781565,0.040873453,-0.04480291,-0.03504079,0.03733325,0.16745536,0.034206398,0.16105026,0.09432113,0.19877473,0.14843072,0.06331675,0.051101346,-0.02935261,0.08456654,0.09691904,-0.023318611,-0.074518844,0.0896081,0.029990952,0.06366335,0.08591369,0.017900944,0.12307343,-0.022387108,0.09387128,0.17063998,0.10324203,-0.03955251,0.0444161,0.07861914,0.022200605,0.13072659,0.020210054,0.22762814,-0.017017404,0.18819197,0.2531653,0.07568647,0.17720725,0.00895834,0.16396224,0.009449158,0.02928941,-0.040365912
AMT,-0.030327128,-0.032054268,-0.05496727,0.052389987,0.11596748,0.22207734,0.02409067,0.13390777,-0.012015879,-0.05759595,0.18134744,0.10963163,-0.003797762,-0.011401709,0.12506783,0.07984717,0.041076127,-0.016403502,-0.081353895,0.0112525895,-0.02118509,-0.03335207,-0.035333574,0.012937851,0.058988452,-0.01128179,-0.07073462,0.08860587,0.1952656,0.08156425,0.07164894,-0.036690004,-0.077986725,-0.020384818,0.03557446,0.17954394,0.174493,0.0018793689,0.24683003,-0.058531854,0.032934528,-0.0044103824,-0.026019774,0.07325066,-0.03993542,-0.014379251,0.21724594,0.13738315,0.04080356,-0.05469326,0.029080542,0.09304975,-0.0137053635,0.002943173,-0.05017996,0.11709038,0.03939828,-0.04888568,-0.034263305,0.03750574,0.16812617,0.03579656,0.025498759,0.1003996,0.19747658,0.14479929,0.061156005,0.02629228,-0.029773116,0.058144033,0.089797474,-0.032587644,-0.07503994,0.08994502,0.01974248,0.05798875,0.084710054,0.012824079,0.12139493,-0.0214061,0.09431758,0.17333093,-0.0084925,-0.04408788,0.020029142,0.07488315,0.020869825,0.029025882,0.021411952,0.22233485,-0.030834293,0.18899745,0.25027195,0.064246014,0.17775829,0.0052720346,0.15952171,0.008818135,0.023932915,-0.054277457
AMZN,0.06661054,-0.017619047,-0.056056213,0.05496014,0.114340246,0.22082934,0.02888076,0.13409555,-0.012450017,-0.039560176,0.18216792,0.117667034,0.118083805,-0.011674777,0.12543078,0.08118938,0.1919694,-0.004560369,-0.08175458,0.121876374,-0.022253295,-0.03183213,-0.02646199,0.012039807,0.060244326,-0.011499889,-0.062800474,0.09035734,0.19574107,0.07876267,0.079329394,-0.03134396,-0.050038405,0.035547227,0.18007776,0.17779979,0.17433368,0.09969835,0.24514472,-0.011089306,0.1775281,-0.0029960983,-0.026265264,0.07360333,-0.039941743,-0.016893685,0.21857306,0.13725564,0.039116167,-0.04451304,0.028807819,0.10872765,-0.00851419,0.11555609,-0.046364352,0.11703025,0.039680116,-0.039623316,-0.034296613,0.037350204,0.16752486,0.033630166,0.1968416,0.10073409,0.19947702,0.1514811,0.06063519,0.065669976,-0.025009977,0.091098845,0.09762914,-0.024825938,-0.074600846,0.09308991,0.037637874,0.06226405,0.08885269,0.01932819,0.12627974,-0.023612939,0.09344656,0.17138714,0.13329247,-0.03755297,0.04133062,0.08110092,0.01520825,0.16111413,0.021307211,0.23128521,-0.016417839,0.18847534,0.25843042,0.07397398,0.1770226,0.013009075,0.16849032,0.009695511,0.03030926,-0.035649706
ANET,0.066960394,-0.0209652,0.0012327731,0.057234373,0.11636676,0.23308215,0.024231642,0.13384347,0.00087167136,-0.022087399,0.18137115,0.19537868,0.13373274,0.02400631,0.12582076,0.08356012,0.20215683,0.016355798,-0.081881076,0.14578062,-0.023233207,-0.028925804,-0.020505574,0.011656996,0.06437686,-0.012570869,-0.06338765,0.17134485,0.20045123,0.079666354,0.07662779,0.09148117,-0.059205852,0.053107772,0.21481287,0.18705696,0.17373289,0.095143236,0.25387913,0.23777115,0.1805742,0.07670148,0.1431047,0.12703073,-0.018269189,-0.014317077,0.22160129,0.13674206,0.039504744,-0.010038103,0.028916446,0.127425,-0.008390121,0.67025566,-0.013234612,0.1201568,0.0397135,0.043680817,-0.035880093,0.039596695,0.16782038,0.034204602,1.0648439,0.09857601,0.2042788,0.14903149,0.07277653,0.27745777,-0.020413864,0.50294304,0.15226924,0.099279314,-0.07560751,0.17250516,0.27648613,0.06819969,0.088147014,0.06600941,0.20537452,-0.023675308,0.09483218,0.17341517,0.6987529,0.06571506,0.1473028,0.117408015,0.098811835,0.8360599,0.028945431,0.2587082,0.15319727,0.23610552,0.26047325,0.076921076,0.17583227,0.016206875,0.17540771,0.015311811,0.04617845,0.1486481
ANSS,-0.019155314,-0.027361877,-0.05774965,0.05455426,0.11733554,0.21766937,0.02599848,0.13439597,-0.015360143,-0.050090894,0.183379,0.10508187,0.01626059,-0.008128755,0.12663199,0.078642204,0.0688093,-0.008150741,-0.08140531,0.040166423,-0.023510372,-0.032713655,-0.031979688,0.01238092,0.06262861,-0.010124974,-0.06991844,0.0914273,0.2013106,0.08019528,0.06931424,-0.04600443,-0.06750043,-0.0034978017,0.061989713,0.19106777,0.17445466,0.015529726,0.25430626,-0.039363604,0.056290954,-0.0029429495,-0.020434147,0.07314603,-0.039202634,-0.017908245,0.21648237,0.13591859,0.040947363,-0.04371975,0.028269695,0.10058464,-0.009206267,0.05403547,-0.052390985,0.117175885,0.041464534,-0.0442738,-0.03565359,0.035312846,0.16645549,0.034218144,0.10180232,0.10130402,0.19863361,0.14988023,0.060456872,0.0369398,-0.028719284,0.062602654,0.08750065,-0.028514631,-0.0748114,0.08780439,0.019876774,0.06297612,0.087370664,0.014772363,0.12400982,-0.02212162,0.09333256,0.17157333,0.065856695,-0.046371274,0.034711465,0.074881785,0.017686475,0.08573259,0.020936046,0.23038341,-0.029798595,0.18560362,0.25309643,0.07134996,0.17668295,0.011849515,0.16480392,0.009063549,0.02758038,-0.05561003
ANTM,-0.00031259656,-0.025570188,-0.032620713,0.05595621,0.1192971,0.21978012,0.026977785,0.13449097,-0.014314078,-0.03633245,0.18347272,0.10906474,0.025051441,-0.00567282,0.12449296,0.07941976,0.07392037,-0.009620449,-0.08106741,0.03743644,-0.02261581,-0.025964078,-0.027985496,0.012454912,0.05775733,-0.014070491,-0.06977928,0.17044908,0.20007154,0.079713434,0.07012002,0.026908072,-0.061928615,-0.008784131,0.059573285,0.1864322,0.17451459,0.023774505,0.25311854,0.18098694,0.06635395,0.053867497,0.10995662,0.11682045,-0.04057648,-0.018489158,0.21724041,0.13593969,0.03755478,-0.03613272,0.028769631,0.0949119,-0.0064468086,0.54783946,-0.025209403,0.11611807,0.038739435,0.008703902,-0.035616107,0.036511708,0.16819972,0.03338316,0.8596343,0.10049329,0.20042837,0.15460435,0.06158141,0.22271088,-0.028055834,0.42223924,0.12697536,0.07430554,-0.074777395,0.1411095,0.21021247,0.06554238,0.08740302,0.011854043,0.17659077,-0.021487772,0.09216761,0.17055857,0.55781627,0.033643384,0.10708027,0.07839822,0.08561988,0.67140526,0.026860362,0.25052905,0.11254847,0.18594493,0.2570675,0.07854392,0.1774212,0.009997472,0.1704225,0.008259527,0.026091713,0.096126676
AON,0.02829728,-0.0310501,-0.05682075,0.05137078,0.11663474,0.22039433,0.022842638,0.13391978,-0.0152276065,-0.06637654,0.18126671,0.10004792,0.070646614,-0.0052867197,0.1260426,0.079763934,0.13039063,0.004648539,-0.0795185,0.09134789,-0.023075817,-0.03390538,-0.035070874,0.013565622,0.061014585,-0.011068933,-0.07169282,0.093285725,0.19565034,0.080174774,0.072237775,-0.04997991,-0.07904092,0.025533045,0.13344757,0.17936394,0.17336854,0.04852624,0.24730758,-0.0023119785,0.11088855,-0.0038441643,-0.014983218,0.0726657,-0.040072884,-0.018577803,0.21666618,0.13640967,0.040062424,-0.03127083,0.029295325,0.079930745,-0.0069783144,0.117326014,-0.05406043,0.11530844,0.040600438,-0.047792207,-0.03569571,0.035281748,0.16701457,0.034166187,0.20919053,0.09900093,0.19747972,0.14604041,0.060716294,0.03142006,-0.024471981,0.13308252,0.082120635,-0.0059624948,-0.0749518,0.083062954,0.046499714,0.06447302,0.085228905,0.012077654,0.120663896,-0.022193521,0.09328556,0.17074431,0.11433223,-0.030229233,0.022080451,0.07149286,0.017787583,0.14728025,0.021404449,0.22497104,-0.008234455,0.18262649,0.25044233,0.06551477,0.1776173,0.0033389032,0.1595927,0.008039467,0.024544332,-0.04692561
AOS,0.027386688,-0.025990024,-0.05407313,0.055520035,0.1187683,0.22094333,0.022291463,0.13270584,-0.011467403,-0.0334877,0.18016583,0.111660704,0.072099425,-0.009927411,0.12656529,0.08082527,0.13472873,-0.00766819,-0.08090374,0.08659859,-0.02096072,-0.033461433,-0.03139394,0.0123826675,0.05824181,-0.012263959,-0.06380598,0.09082058,0.19673423,0.07911015,0.06981449,-0.040113874,-0.0701402,-0.00705155,0.1365224,0.17942342,0.1737932,0.062673755,0.24629293,-0.029041586,0.12445906,-0.0022282787,-0.01963494,0.073491365,-0.039854888,-0.016988467,0.21905947,0.13652411,0.04096957,-0.045574486,0.029998753,0.11539745,-0.008885419,0.049164526,-0.049045395,0.11634379,0.040961623,-0.044109344,-0.034303635,0.037562322,0.16848487,0.035086326,0.10510951,0.09917192,0.19789411,0.14592999,0.061263423,0.033458307,-0.021413226,0.087219074,0.08862381,-0.01835034,-0.0745493,0.08891305,0.025045993,0.06280191,0.085543305,0.014472708,0.12344426,-0.022350727,0.09391239,0.17146489,0.058866013,-0.036995396,0.03418672,0.0756037,0.016341064,0.07487193,0.022130735,0.22761208,-0.021914955,0.19049445,0.25399774,0.071610816,0.17604443,0.013368618,0.16295542,0.00816334,0.02981187,-0.052729376
APA,0.19928744,-0.018951852,-0.042416267,0.055009615,0.13611168,0.21825254,0.05070854,0.13808095,-0.014508167,0.013755612,0.192355,0.12775752,0.33015662,-0.0049505644,0.123261146,0.079458304,0.45894885,0.062486306,-0.07946549,0.3531472,-0.02342684,-0.032502808,-0.026318824,0.011409923,0.061202522,-0.007903536,-0.04763717,0.11413603,0.23447402,0.080905564,0.106965885,-0.027784243,-0.0424914,0.16231161,0.47377932,0.2690103,0.17942612,0.25411975,0.3261297,0.063776664,0.4277675,0.011662589,0.047891,0.08829613,-0.037205108,0.018110476,0.22156177,0.1323398,0.05918917,0.050477877,0.028843436,0.10765645,-0.0018065162,0.27715725,-0.044526655,0.11477469,0.052468542,-0.025242753,-0.035829026,0.03398865,0.17173219,0.03539342,0.45172837,0.10074512,0.20193921,0.15089145,0.061407447,0.11598674,0.00325061,0.244905,0.09415424,0.020478431,-0.07507089,0.12252772,0.12547605,0.06989452,0.091450155,0.026335526,0.14071798,-0.022561194,0.096581504,0.17772526,0.27634555,0.007699729,0.06278312,0.08042208,0.055012975,0.3513485,0.024677463,0.23273842,0.050153326,0.1954626,0.2607028,0.0697224,0.17833526,0.0096642375,0.17236954,0.008418992,0.031416617,0.01827037
APD,-0.024736743,-0.02620532,-0.05407946,0.052943535,0.119618714,0.22132567,0.022494137,0.13387145,-0.012976209,-0.06530951,0.18126382,0.10303362,-0.007844724,-0.006423205,0.12567809,0.08196983,0.03474693,-0.016737685,-0.08125308,0.0233844,-0.020840121,-0.033424996,-0.03483938,0.011893205,0.053179026,-0.012263173,-0.07220797,0.09171032,0.19613402,0.07949197,0.07228532,-0.042810444,-0.069310404,-0.016945792,0.024074553,0.17813922,0.17464554,-0.003890812,0.2474398,-0.05718731,0.027688172,-0.001604531,-0.02127003,0.07288295,-0.04005927,-0.019189298,0.21679765,0.13607231,0.03830061,-0.05113731,0.02887431,0.08137037,-0.009012885,0.0022529885,-0.049316276,0.11556877,0.040186793,-0.047645066,-0.034519024,0.037642866,0.16678216,0.03347649,0.019766659,0.099382415,0.19831474,0.14997275,0.06096428,0.021189228,-0.03090705,0.0658713,0.087713405,-0.030475799,-0.07496996,0.083942845,0.013273599,0.06239851,0.08393218,0.01214138,0.121357456,-0.022306222,0.09291196,0.17085925,-0.021250043,-0.04693339,0.018176809,0.0740526,0.020107498,0.014332578,0.020415243,0.22781652,-0.027851122,0.18166609,0.2510974,0.06606156,0.17728339,0.0030885413,0.16175115,0.007800095,0.026371673,-0.05986056
APH,-0.035214387,-0.028017003,-0.056157295,0.05170317,0.11455602,0.21911545,0.023181438,0.13354781,-0.013806196,-0.059280224,0.1820782,0.10294521,-0.020336881,-0.009593226,0.12595756,0.079815686,0.020130992,-0.0142142605,-0.08098516,0.0035916492,-0.022278516,-0.033239294,-0.034439623,0.012438886,0.05998149,-0.01246121,-0.07134351,0.101182744,0.19892369,0.07977993,0.07345878,-0.044127487,-0.07178316,-0.01923487,0.013102041,0.17911589,0.17376646,-0.013263975,0.24877301,-0.02886186,0.013029907,-0.0022607446,-0.0029124264,0.07884641,-0.03998844,-0.019123383,0.21613555,0.13713601,0.038497448,-0.052843377,0.030001033,0.08988698,-0.011819778,0.071799845,-0.05166036,0.11679691,0.04040104,-0.04943467,-0.03618908,0.037358217,0.16702951,0.033676296,0.124007,0.099445075,0.19764999,0.14855139,0.061185904,0.025387958,-0.032448523,0.11043001,0.08569861,-0.016170092,-0.075062,0.09030729,0.034962837,0.060151756,0.08424793,0.013994917,0.120331764,-0.022876251,0.09301501,0.17126699,0.05835369,-0.04430048,0.04133004,0.07673319,0.023113606,0.088863604,0.020823486,0.22785714,-0.013950352,0.18210374,0.2519836,0.0754469,0.17750612,0.005055703,0.16317567,0.008897584,0.028657671,-0.05776858
APTV,0.025477722,-0.018602751,-0.05764942,0.05388719,0.11906933,0.22032173,0.030176312,0.13569403,-0.014551062,-0.03338722,0.18216795,0.10380347,0.081371434,-0.008964248,0.124867275,0.08138496,0.14113025,0.007358026,-0.080141544,0.110800646,-0.023338744,-0.033647913,-0.022913294,0.0123163685,0.061460957,-0.012431795,-0.065954626,0.099214956,0.2082634,0.07877655,0.07584545,-0.039616905,-0.06823186,0.03453553,0.1483031,0.20878963,0.17497239,0.05194187,0.27245373,-0.023662629,0.12376372,-0.00022106618,-0.012094818,0.07742394,-0.04265579,-0.011995673,0.21629785,0.13789403,0.038348693,-0.024967689,0.029354408,0.10647693,-0.0074087307,0.073014416,-0.048929423,0.11497486,0.039539963,-0.04182902,-0.034065764,0.036801036,0.16760793,0.034097023,0.13859886,0.10087678,0.19959897,0.14398012,0.060941864,0.039266028,-0.02508822,0.103405744,0.08881062,-0.012511961,-0.07447697,0.09028351,0.030402211,0.063708164,0.08813703,0.019461522,0.12515044,-0.0254917,0.09433294,0.17168564,0.067891665,-0.036589183,0.026858881,0.07954862,0.022578672,0.090611055,0.022334527,0.23734549,-0.02200896,0.18480448,0.26287022,0.06832079,0.17612419,0.011493374,0.17511381,0.010977536,0.031167861,-0.04582293
ARE,-0.054449275,-0.029746972,-0.051979057,0.05291065,0.11491597,0.22313523,0.023424678,0.13424441,-0.011128107,-0.048662875,0.18088168,0.096029446,-0.04293879,-0.010248654,0.12597825,0.07948663,-0.009609474,-0.01995614,-0.080750495,-0.01563473,-0.01953228,-0.03362128,-0.032183103,0.013517469,0.054479934,-0.0072686095,-0.073287845,0.08396906,0.19484584,0.08109282,0.07088633,-0.033094406,-0.0746349,-0.029829111,-0.0065233707,0.183282,0.1729478,-0.031503316,0.2524115,-0.06415638,-0.014318474,-0.0071582496,-0.03210752,0.06960066,-0.03935808,-0.016534748,0.217167,0.13544472,0.044500347,-0.05926505,0.02695583,0.08558023,-0.0139807835,-0.002427943,-0.051438324,0.118576065,0.0410887,-0.04676169,-0.03489693,0.038483225,0.16763397,0.036697976,0.0061081722,0.09650523,0.19811949,0.14570652,0.060217217,0.014058061,-0.031930733,0.032464154,0.08517577,-0.03554593,-0.07487744,0.08440072,0.009359006,0.05911206,0.08878999,0.011861347,0.12317605,-0.020229477,0.095310226,0.17052233,0.0006152503,-0.04744337,0.022704363,0.07170453,0.009229021,0.0062867403,0.020942286,0.22451925,-0.03274973,0.18139234,0.25442222,0.07095697,0.17720358,0.003853634,0.16389756,0.0075885803,0.02496285,-0.06404352
ATO,-0.063873775,-0.033270545,-0.050974544,0.051401634,0.116417415,0.22281158,0.023122761,0.13561833,-0.011242859,-0.06192389,0.18036054,0.092123084,-0.05385186,-0.0120726,0.12610844,0.079044506,-0.035900496,-0.02285279,-0.080640584,-0.019592352,-0.0198305,-0.033808354,-0.034837306,0.014397979,0.05589344,-0.0073253857,-0.07240837,0.08345242,0.19252731,0.08284075,0.07397807,-0.032670878,-0.08156007,-0.038464118,-0.03326041,0.18449314,0.17396228,-0.059888348,0.25330237,-0.049805533,-0.045344967,-0.008457564,-0.033851303,0.07008226,-0.0383612,-0.017885454,0.21658815,0.13477546,0.0438893,-0.06266819,0.026931835,0.07377328,-0.011142822,0.028759517,-0.053684756,0.11688713,0.041294612,-0.050152417,-0.03391366,0.036815714,0.16806722,0.036150567,0.05618893,0.09784812,0.19809212,0.14621516,0.059306804,0.026439063,-0.030066993,0.03818274,0.090224676,-0.034522317,-0.07471034,0.085583046,0.0009507071,0.06141371,0.087544054,0.010803996,0.12019382,-0.020179005,0.09538633,0.17043202,0.035286903,-0.04579058,0.028454833,0.072552755,0.010508841,0.042427614,0.020406824,0.22262098,-0.038174704,0.17854671,0.2506258,0.06876243,0.17748855,0.0019151717,0.15993844,0.008013349,0.023379482,-0.069838375
ATVI,0.02818915,-0.02487915,-0.05603248,0.058454577,0.11735144,0.21823725,0.026126854,0.13477501,-0.013948198,-0.04071086,0.18444921,0.13213336,0.07109451,-0.0019178092,0.12590532,0.07892197,0.12866786,0.0028680782,-0.07936954,0.09245971,-0.023839934,-0.032840267,-0.025861822,0.010972649,0.06326369,-0.008407818,-0.06678313,0.10614977,0.19947948,0.080410495,0.069478594,0.0062209964,-0.06419635,0.026422272,0.13358761,0.19170359,0.17479774,0.04557963,0.2581411,0.049405392,0.110211596,-0.004234448,0.003302876,0.07949502,-0.0311452,-0.016057212,0.21892735,0.1363877,0.042608477,-0.029202221,0.027926568,0.10670866,-0.014810035,0.25368768,-0.035047516,0.11580449,0.040564496,-0.038326904,-0.035313074,0.03772897,0.16952714,0.035871297,0.415121,0.09989953,0.20087057,0.14771959,0.061223987,0.12288524,-0.024919448,0.18195431,0.11620153,0.0071251728,-0.07587973,0.09540053,0.09258732,0.06304829,0.089834295,0.023846745,0.122861445,-0.02141323,0.09460748,0.17235258,0.276724,-0.014468033,0.07585762,0.08701667,0.029397018,0.3299468,0.02663017,0.22487773,0.013856701,0.18622497,0.2607361,0.08879985,0.1773557,0.013724647,0.167635,0.010497291,0.030082285,0.013827216
AVB,-0.05683521,-0.031470492,-0.054494184,0.052281763,0.11498846,0.22272345,0.023232404,0.13483651,-0.012358991,-0.05774511,0.18115157,0.0974721,-0.042951852,-0.011870164,0.12646407,0.07960208,-0.020640133,-0.018755611,-0.08184512,-0.021012165,-0.020301467,-0.033568256,-0.034951124,0.012991719,0.05722442,-0.008053136,-0.07404125,0.08538907,0.19274305,0.0815427,0.07034144,-0.035507165,-0.076871306,-0.035750337,-0.018636052,0.18268755,0.1740641,-0.046540476,0.25069955,-0.06029187,-0.029070448,-0.006749101,-0.031064766,0.070025265,-0.037777845,-0.018185452,0.21608694,0.13545111,0.043315224,-0.062536746,0.027431192,0.07730439,-0.013161048,0.0064289123,-0.051613696,0.116745695,0.04093637,-0.046149284,-0.034917057,0.03758251,0.16706379,0.035768505,0.019779678,0.09854582,0.19687074,0.14448828,0.061113432,0.017588146,-0.031892803,0.03476715,0.0867543,-0.03608403,-0.07482239,0.08678338,0.0075752567,0.058467012,0.08575205,0.013682751,0.123940006,-0.020314846,0.09484059,0.1689283,0.010379724,-0.04847165,0.023727097,0.07096317,0.012685642,0.016475417,0.020494737,0.22495277,-0.03420043,0.18173863,0.25182706,0.068721406,0.17710361,0.0018959269,0.16193646,0.009137932,0.025313623,-0.06580659
AVGO,0.04271338,-0.022158504,-0.055101264,0.0551175,0.11725354,0.21987382,0.024803236,0.13388807,-0.0131924655,-0.036104113,0.18305239,0.15407279,0.09431275,-0.0019006841,0.12580217,0.08042016,0.15901342,0.012527922,-0.08136704,0.11499987,-0.02231005,-0.034012552,-0.031921886,0.012054227,0.06249807,-0.007695035,-0.06585057,0.10254647,0.199355,0.08092398,0.077461556,0.017223043,-0.06396824,0.037992135,0.16216803,0.1831793,0.1736664,0.065918915,0.25048244,0.0714951,0.13981353,-0.00543309,-0.008410955,0.078955665,-0.027668454,-0.015821183,0.21842715,0.13548023,0.042546757,-0.023524236,0.02641616,0.107945636,-0.0105331205,0.29655045,-0.040935922,0.11579342,0.04131633,-0.031498075,-0.035171725,0.036554504,0.16790956,0.035380535,0.48190552,0.09999327,0.20268951,0.15000476,0.06319628,0.14667976,-0.022525512,0.20616879,0.1179659,-0.019946203,-0.07543793,0.0913438,0.11427532,0.062271804,0.09226395,0.03302294,0.1251556,-0.021526039,0.09469715,0.17300257,0.32418165,-0.0009650169,0.08615379,0.10116066,0.028020624,0.38737524,0.022137966,0.23114088,0.022432894,0.18563008,0.2556704,0.08806216,0.17726086,0.012865514,0.16603586,0.010128811,0.027131025,0.030934583
AVY,0.07072043,-0.018569887,-0.05316858,0.051779006,0.123596564,0.22413768,0.026769057,0.1328171,-0.013657689,-0.010361396,0.18137869,0.10318695,0.1398038,-0.0055840313,0.12610325,0.081891954,0.22626269,-0.0039923103,-0.07979018,0.1540438,-0.021291366,-0.034199048,-0.018666722,0.013572078,0.05579578,-0.011672766,-0.05782005,0.09091079,0.1986575,0.08036284,0.07520296,-0.041435923,-0.06600709,0.029980417,0.22496328,0.19485895,0.1743992,0.115565315,0.2626822,-0.05070205,0.20804054,-0.0015002787,-0.026621176,0.072855115,-0.04039845,-0.017462058,0.21811214,0.13563982,0.038972057,-0.022631718,0.027568003,0.1414538,-0.0069124494,0.006806016,-0.05162282,0.11609376,0.0409483,-0.04439921,-0.035097845,0.037289303,0.16696039,0.033238,0.028194018,0.09755649,0.19767606,0.1480434,0.060607612,0.023698922,-0.015929356,0.057913736,0.08508451,-0.028391086,-0.07516058,0.08584139,0.009781044,0.06313048,0.08490042,0.014740335,0.12261153,-0.022446193,0.09352994,0.17212546,0.0107346475,-0.045010317,0.023014598,0.07343046,0.017441697,0.025657415,0.020660521,0.23057987,-0.031470127,0.18395904,0.25143442,0.070710495,0.17652068,0.022509303,0.16209233,0.009017047,0.027597174,-0.05656206
AWK,-0.06467513,-0.033113368,-0.05188453,0.051826946,0.114784926,0.2212136,0.023053996,0.13574727,-0.010983538,-0.06325801,0.18125781,0.1059991,-0.042597726,-0.009975221,0.12478158,0.07937981,-0.017248595,-0.02001281,-0.08087966,-0.0135559365,-0.019870365,-0.033383366,-0.033080265,0.0144315995,0.058126815,-0.013166623,-0.07243806,0.08301316,0.1941486,0.08273432,0.07171272,-0.03324587,-0.07850075,-0.029544193,-0.01714082,0.17530897,0.17561238,-0.049651183,0.24195243,-0.050211933,-0.027136523,-0.0013450645,-0.028399672,0.07055126,-0.03781838,-0.018437069,0.21727225,0.13688736,0.037921835,-0.060039237,0.029237984,0.07618706,-0.011841111,0.028860375,-0.051992998,0.117373794,0.03817951,-0.048613023,-0.034392398,0.03695202,0.16718957,0.0341885,0.055614375,0.09873901,0.19679022,0.14475085,0.06139434,0.026050538,-0.03152082,0.03643179,0.09043159,-0.038925868,-0.07455528,0.08860492,0.023271851,0.060143042,0.08399019,0.009647759,0.120945185,-0.021628976,0.09315249,0.16994528,0.03612512,-0.032941543,0.030277438,0.072711386,0.013914783,0.044656992,0.020106783,0.22308557,-0.02694825,0.17922297,0.2530451,0.06618943,0.17787962,0.0020643175,0.16206932,0.00936462,0.023220878,-0.050299842
AXP,0.0010688715,-0.026314314,-0.054207098,0.053537283,0.114175804,0.21867101,0.02189935,0.13340339,-0.012102133,-0.024106286,0.1805323,0.10335009,0.049490616,-0.00681117,0.12566057,0.07958332,0.11113368,-0.021514615,-0.0806304,0.06214285,-0.02077066,-0.03316597,-0.021287385,0.012779899,0.057392552,-0.011673237,-0.067166716,0.09306632,0.19457735,0.079298824,0.06859913,-0.03133525,-0.06830505,-0.020508572,0.1174541,0.17825994,0.17267197,0.035810404,0.24625672,-0.04289353,0.09208159,-0.0026200935,-0.02495668,0.073640496,-0.03979929,-0.018328052,0.21696067,0.13700302,0.039739035,-0.040154774,0.02941914,0.11195129,-0.006584,0.042395964,-0.047870718,0.11503269,0.040203225,-0.043054577,-0.034913957,0.03582365,0.16695471,0.034207102,0.08332653,0.09980525,0.19829088,0.14881192,0.06090685,0.042294156,-0.032365225,0.06304787,0.09418973,-0.030937247,-0.074442424,0.08628635,0.036226887,0.06420027,0.09165477,0.014707373,0.12415069,-0.023309903,0.093198545,0.17059392,0.03041831,-0.03892116,0.02317468,0.07591785,0.0144008845,0.074986815,0.021435998,0.22848345,-0.029135905,0.18443808,0.26262313,0.06634918,0.1773709,0.0146523975,0.17490244,0.009381458,0.02603791,-0.04376857
AZO,0.0069765057,-0.027415521,-0.058211215,0.05536785,0.11669977,0.22964247,0.022721186,0.13375269,-0.014730727,-0.044363104,0.18142569,0.14797992,0.044383276,0.005056396,0.1265731,0.080482826,0.11880188,-0.002535081,-0.083006576,0.075340256,-0.023256859,-0.03285096,-0.032974444,0.012373816,0.060923144,-0.010317938,-0.069652006,0.09194212,0.19758713,0.07916189,0.07412457,0.011621963,-0.07477677,0.01534621,0.11850042,0.18138818,0.1732989,0.031271227,0.24979885,0.032737672,0.09416671,-0.005198423,-0.024035983,0.07490529,-0.036595903,-0.0074557643,0.22654615,0.13538319,0.043499157,-0.026214622,0.028150203,0.105235174,-0.007055439,0.2124305,-0.03308972,0.114889,0.041569907,-0.040754467,-0.03279249,0.035698198,0.16891587,0.035513774,0.3588342,0.10045123,0.19968276,0.14552572,0.0604384,0.12758718,-0.027773846,0.15025686,0.10571918,-0.027463015,-0.075026736,0.08819961,0.09896235,0.06477779,0.08990138,0.04694112,0.12827328,-0.021093383,0.0941707,0.17280495,0.21695627,-0.009002339,0.05548556,0.09288319,0.019832615,0.28779912,0.020923693,0.22646537,0.0035848506,0.21082638,0.25683215,0.07594208,0.1764706,0.0133138895,0.1680574,0.009398058,0.035300165,0.028029647
BA,0.012410928,-0.020849742,-0.053616762,0.05486474,0.12228033,0.2226927,0.024374701,0.13471933,-0.013087809,-0.04975254,0.18182427,0.11044456,0.04529892,-0.006944338,0.12345721,0.08156084,0.0998147,-0.0016046171,-0.08278532,0.062036358,-0.021263948,-0.03393104,-0.030586846,0.0131626725,0.057444572,-0.012572639,-0.07091935,0.09475901,0.20226207,0.07705347,0.06910358,-0.033817045,-0.059300408,0.008840658,0.09656662,0.18634552,0.17339797,0.042617846,0.25282767,-0.020192483,0.091547534,-0.0007676296,-0.0011486039,0.07731144,-0.041697334,-0.01595717,0.21792482,0.13599813,0.038697593,-0.040797044,0.028002642,0.09504932,-0.012170397,0.09360654,-0.045939174,0.11330196,0.038506195,-0.040906273,-0.03545871,0.039372295,0.1688802,0.034360647,0.17254494,0.09825374,0.19883516,0.14988647,0.06373432,0.04419805,-0.027854398,0.12369605,0.09238831,-0.013137899,-0.074248284,0.09620068,0.046151385,0.066725045,0.08683868,0.02289115,0.13098869,-0.0231745,0.09245147,0.17207591,0.07770856,-0.038394757,0.03987494,0.07663623,0.020989098,0.12082305,0.02045609,0.22822241,-0.0009913305,0.18817416,0.25704122,0.072263904,0.17757604,0.008256666,0.16790953,0.008994795,0.027451515,-0.041901942
BAC,0.027194431,-0.024197746,-0.0517945,0.053795215,0.11552765,0.21980326,0.024622872,0.13218719,-0.009808524,-0.054399833,0.18066752,0.1083264,0.06794659,-0.009834034,0.1259489,0.07989382,0.12541771,0.0018775412,-0.080473416,0.08828808,-0.019143043,-0.03251961,-0.031347968,0.013866298,0.059888102,-0.010892237,-0.06528969,0.09474613,0.19587559,0.078061625,0.07052725,-0.034251697,-0.06423232,0.019836277,0.12992,0.17694801,0.17329606,0.043232385,0.24706605,-0.04766934,0.10649803,-0.0018157959,-0.015691891,0.076193884,-0.03987822,-0.017610691,0.2176706,0.1348872,0.04106538,-0.034106575,0.028078519,0.08544467,-0.0058063157,0.030910924,-0.047120668,0.11625333,0.041319877,-0.042946085,-0.036010195,0.035977367,0.16751623,0.034505073,0.066156596,0.09754677,0.19854274,0.14960727,0.060041986,0.03834376,-0.025309617,0.07897835,0.09341907,-0.024961162,-0.07368855,0.08847835,0.029154174,0.06528394,0.08589737,0.019290034,0.1237267,-0.022191677,0.09363309,0.17009929,0.037945848,-0.041131534,0.030877858,0.076217696,0.020924084,0.060169198,0.019852797,0.22958872,-0.023896893,0.1871696,0.2519667,0.070288554,0.17638059,0.005902428,0.16406488,0.009351611,0.032797832,-0.04528049
BAX,-0.029646577,-0.025961231,-0.04415311,0.052380025,0.11594243,0.21827978,0.02419966,0.1343715,-0.013923969,-0.03959307,0.18278544,0.11407794,-0.009664126,-0.0075921975,0.12549193,0.08081764,0.034046665,-0.01792323,-0.0811427,0.0025329366,-0.022997888,-0.033574935,-0.026580244,0.011927187,0.06039012,-0.010829536,-0.07196124,0.109342575,0.19657561,0.079763494,0.07028439,-0.022135463,-0.068810545,-0.027625138,0.036785055,0.17835686,0.17349282,-0.007862944,0.24628271,0.027656939,0.019297872,-0.0035740808,0.028624699,0.08649695,-0.040191144,-0.017199244,0.21742913,0.1363469,0.040369526,-0.056192987,0.028042953,0.09362616,-0.010094667,0.19789396,-0.04875443,0.11628933,0.040299818,-0.034992788,-0.03529013,0.036394518,0.16761482,0.034563094,0.3350267,0.100750245,0.1988667,0.14904356,0.06046978,0.07063973,-0.03221561,0.19221173,0.10084148,0.005299352,-0.07507835,0.10935835,0.08850472,0.061307155,0.08907342,0.0102638975,0.1451067,-0.021560099,0.09337489,0.16995057,0.19195463,-0.020140465,0.055174045,0.080187246,0.036223058,0.25313786,0.020775951,0.2363182,0.026423257,0.18313704,0.2569215,0.080644354,0.17755784,0.008636467,0.16912836,0.008668218,0.026796773,-0.012165198
BBWI,0.14628825,-0.014984421,-0.04196187,0.06272259,0.11978175,0.23659427,0.03579864,0.13330252,-0.0020230226,-0.036888346,0.18402933,0.1839908,0.22277695,0.012556678,0.12603192,0.08026919,0.3283027,0.04518948,-0.07958248,0.24385902,-0.0135326255,-0.029863525,-0.029397415,0.011436809,0.057392526,-0.009827068,-0.059725087,0.12293373,0.20469889,0.082148194,0.10163184,0.056344677,-0.058896113,0.10814522,0.33409715,0.21888329,0.1786412,0.1692292,0.27806944,0.12717244,0.30453455,-0.0009015314,0.037140317,0.08716106,-0.017537516,0.00093660504,0.22138694,0.1381843,0.039558414,0.022384852,0.027786527,0.10961737,-0.016321272,0.43451178,-0.025291685,0.114997536,0.04112228,-0.011386305,-0.034813114,0.044191364,0.17122032,0.03383226,0.6935356,0.08959663,0.20181283,0.1519309,0.063001215,0.1990841,-0.0105612315,0.29895732,0.12765159,0.0086050555,-0.07532611,0.12156336,0.16629924,0.06151325,0.087541915,0.057799824,0.1444701,-0.023343908,0.09580548,0.17401755,0.4757367,0.017876193,0.11662817,0.102653146,0.041730296,0.5592223,0.02432888,0.23709203,0.058239188,0.2213236,0.2563278,0.09592372,0.17677881,0.011929791,0.16656536,0.012621194,0.037164457,0.07505046
BBY,0.15841913,-0.0108476095,-0.049325444,0.05630169,0.124047,0.22362229,0.03371436,0.13286841,-0.007985432,-0.020084359,0.18389696,0.12848476,0.25364134,-0.006857671,0.12626666,0.08546652,0.35609037,0.045973323,-0.079043925,0.26912224,-0.019207204,-0.03333215,-0.029592175,0.013390876,0.06062393,-0.010724638,-0.058106165,0.1277491,0.20986943,0.07966396,0.09447932,-0.030573498,-0.049009755,0.118701756,0.37118492,0.21987012,0.17676793,0.19707353,0.2818509,0.04056939,0.3307234,-0.002175171,0.032101292,0.092310965,-0.039878197,-7.463619e-05,0.22057652,0.1361033,0.040552244,0.028968977,0.028488865,0.08519138,-0.013902765,0.2313503,-0.04685148,0.11687371,0.042184055,-0.044593696,-0.035377372,0.039198346,0.16916274,0.034216803,0.3742907,0.09498409,0.19997025,0.15266013,0.060107246,0.08338249,-0.009353258,0.21577546,0.09476927,0.010868989,-0.07451404,0.106172405,0.09118957,0.061888818,0.08809017,0.021372959,0.13510078,-0.022234846,0.09355361,0.17469282,0.22334544,-0.017259616,0.0449614,0.07926321,0.048347674,0.2895704,0.0208711,0.235815,0.03325543,0.19713391,0.25729516,0.07861377,0.17747141,0.0045757927,0.16613482,0.009217404,0.02625522,-0.014903016
BDX,-0.04631274,-0.028625395,-0.056219302,0.052284904,0.11835986,0.22251908,0.024038091,0.13412412,-0.014589217,-0.05762608,0.18398684,0.099057004,-0.032665767,-0.010553265,0.1265156,0.08023374,0.0058436207,-0.01840389,-0.08125939,0.004312709,-0.02125297,-0.0337531,-0.032140538,0.014289502,0.05919343,-0.009948859,-0.07129924,0.09625912,0.19506046,0.08048919,0.0685687,-0.035235085,-0.07372363,-0.026817646,-0.0006559631,0.18043165,0.17509279,-0.020531978,0.24773502,-0.031239761,-0.0008431114,-0.0050688013,-0.010338264,0.07573265,-0.039314374,-0.016759457,0.21629974,0.13576567,0.042001624,-0.05871828,0.02933174,0.077702925,-0.009351488,0.04913207,-0.046929203,0.11588236,0.041120186,-0.043603923,-0.035353843,0.036468185,0.16710094,0.035021283,0.106410466,0.09942396,0.19721866,0.14762472,0.0602669,0.036305808,-0.03051145,0.09040807,0.0953227,-0.019314047,-0.07447344,0.09151307,0.027754774,0.06235175,0.08444702,0.012262223,0.12527795,-0.02072207,0.09328971,0.16991779,0.045263145,-0.038745046,0.027811669,0.073302895,0.019723728,0.06962977,0.02060293,0.22399493,-0.012370659,0.17933701,0.255252,0.07046903,0.17736761,0.0035457648,0.16507062,0.008969426,0.026251145,-0.047136478
BEN,-0.021572318,-0.028254673,-0.053211607,0.052102216,0.11573278,0.22071494,0.023260884,0.1320019,-0.012337515,-0.049348474,0.18242797,0.13293451,0.006527532,0.0011166614,0.12641633,0.07989703,0.05478815,-0.015741153,-0.08204789,0.025093667,-0.021258863,-0.03259423,-0.03296901,0.01300472,0.06308055,-0.008131436,-0.06656577,0.097804636,0.19818726,0.08018512,0.06730831,-0.0019432753,-0.07085143,-0.021507349,0.046489734,0.18096453,0.17338304,0.0060583972,0.24950494,0.008882664,0.044370074,-0.004737515,-0.008001095,0.07536092,-0.035899542,-0.015559421,0.21973008,0.13588291,0.042238988,-0.05072862,0.02780896,0.094844684,-0.01184909,0.1536997,-0.036265425,0.11649489,0.041913558,-0.03869205,-0.034598216,0.037030563,0.16721585,0.034658514,0.27122134,0.09729409,0.19785157,0.14763851,0.0615495,0.09707433,-0.029978361,0.11250156,0.10401064,-0.01410564,-0.075187854,0.09001049,0.07733415,0.060561128,0.08774568,0.039060988,0.12804484,-0.02330747,0.094367065,0.17227349,0.1576296,-0.017625805,0.047716774,0.08511506,0.025610276,0.22372769,0.022037517,0.23559575,-0.010340358,0.2083865,0.2543227,0.06898658,0.17640042,0.008604921,0.1631798,0.011470877,0.038061302,0.005394377
BIIB,0.36076796,0.0013203956,-0.027654052,0.05784423,0.16181114,0.22336459,0.06476286,0.13755748,-0.0030302592,0.07219083,0.19766152,0.17860124,0.54728246,-0.0061055366,0.12625,0.08207371,0.7647761,0.0975111,-0.08032199,0.58776855,-0.02278638,-0.01682246,0.015190287,0.014187887,0.071737185,0.030895613,-0.025435153,0.1912354,0.23917638,0.08190574,0.14189047,0.09626159,-0.0075723585,0.28084987,0.76051587,0.3136184,0.18508692,0.43539613,0.37347832,0.30781993,0.71434045,0.09671633,0.15140745,0.12471423,-0.033166528,0.03831649,0.2200655,0.13965444,0.05282086,0.10893936,0.03613683,0.20460537,0.031247366,0.8091821,-0.006784794,0.11874825,0.046907414,0.06549267,-0.033165798,0.035365507,0.16807339,0.033705447,1.2723418,0.10282807,0.19942677,0.15331043,0.062084533,0.34198338,0.014614977,0.58286977,0.15647703,0.13341248,-0.075149015,0.16590628,0.3100522,0.08855815,0.11441348,0.0514768,0.18975574,-0.02545077,0.095369205,0.17326704,0.8608001,0.096501544,0.16937259,0.10508501,0.11598528,0.99662656,0.032475837,0.24841256,0.17087755,0.19205166,0.292844,0.082383215,0.1761277,0.046633407,0.2108556,0.010167774,0.03019112,0.19102955
BIO,0.21294835,-0.0032409169,-0.05661104,0.05204406,0.12720922,0.21860528,0.04053507,0.13427505,-0.019265797,-0.0020956472,0.18212077,0.103353135,0.32897308,-0.012878723,0.1266208,0.08010985,0.46114132,0.06412295,-0.07979671,0.3481671,-0.02396383,-0.032101415,-0.018308353,0.011198297,0.05903089,-0.011555482,-0.049754247,0.09364127,0.21273734,0.07942913,0.10837404,-0.043462917,-0.041731212,0.16172215,0.47290856,0.23966981,0.17492163,0.25980103,0.30006793,-0.03990588,0.42798305,-0.0023399256,-0.009534877,0.07608005,-0.03679613,0.009042382,0.21685246,0.13579825,0.039665617,0.05251489,0.030043773,0.1215089,-0.010043561,0.05195435,-0.05381635,0.11648283,0.041356042,-0.049559623,-0.036312487,0.03622756,0.16826159,0.033899024,0.106674194,0.10352297,0.19848251,0.14765085,0.0609312,0.020805407,-0.0044586062,0.09597913,0.08721744,-0.023735013,-0.075105995,0.091358066,0.032367006,0.062051516,0.09144738,0.0127857085,0.1248486,-0.023131756,0.093100384,0.1720628,0.033656325,-0.03686706,0.02328711,0.07232382,0.020497125,0.069792,0.0206,0.22718827,-0.012920846,0.18804729,0.26654404,0.06692522,0.17696354,0.01650107,0.18350552,0.009212337,0.026684798,-0.057815176
BK,-0.007131392,-0.028196227,-0.053658992,0.053703215,0.11633386,0.21922387,0.027237006,0.13460097,-0.012070607,-0.036214538,0.18287235,0.104505375,0.034578532,-0.0017132126,0.12727891,0.07961501,0.08027864,-0.0027120453,-0.079287864,0.060682125,-0.021036519,-0.03326957,-0.026160834,0.013384473,0.060574505,-0.010775611,-0.06924573,0.10461701,0.20261045,0.07954499,0.07012251,-0.036232635,-0.072868735,0.008485828,0.082859114,0.19404799,0.17431241,0.009023119,0.25772455,0.025018921,0.06573313,-0.0034897104,0.0024626479,0.07493736,-0.03887877,-0.014728703,0.21708483,0.13634428,0.041275546,-0.038711023,0.029230362,0.0981738,-0.006156111,0.16933921,-0.04918289,0.115887895,0.04240299,-0.046019997,-0.034908958,0.036335487,0.16795355,0.034446586,0.29055035,0.09856022,0.1969679,0.14774716,0.06369046,0.05534801,-0.028171726,0.16938294,0.08772445,0.0038654357,-0.0745779,0.087499306,0.0638479,0.064247936,0.09015674,0.019165307,0.122192144,-0.02290843,0.0938859,0.17161322,0.1739005,-0.01946054,0.034870297,0.07719255,0.029459186,0.21477535,0.02198321,0.23094437,0.004996408,0.18549794,0.25869623,0.068247244,0.17618078,0.009757541,0.16928087,0.008911274,0.029768854,-0.027442284
BKNG,0.009270979,-0.025894899,-0.051643685,0.053910825,0.113669455,0.22051933,0.027033634,0.13373423,-0.016507741,-0.042546373,0.18328434,0.11701857,0.06381849,-0.011868231,0.12635326,0.07957773,0.121538445,0.008587342,-0.080714375,0.089818776,-0.022757487,-0.033074316,-0.027416144,0.011155754,0.05753895,-0.012169212,-0.062878095,0.108663164,0.20780917,0.08026756,0.07517484,-0.040155612,-0.065297835,0.031184107,0.12323176,0.20251657,0.174088,0.036203388,0.2684191,0.043542698,0.104815975,2.8368086e-05,0.014264531,0.08263367,-0.03783893,-0.015488757,0.21972899,0.13664508,0.040297903,-0.025521066,0.029710216,0.09662697,-0.012327824,0.21841383,-0.0503649,0.11760971,0.040715627,-0.04119026,-0.034965754,0.036637284,0.16892041,0.034420818,0.3663615,0.10250362,0.19820324,0.14956933,0.060963657,0.077429965,-0.025364187,0.19982514,0.09189206,0.012204111,-0.075505406,0.10499514,0.08393301,0.060064122,0.08500544,0.01481449,0.13660853,-0.022790916,0.09296389,0.17193544,0.22734034,-0.012489784,0.04768198,0.072697476,0.03603246,0.27552694,0.022414178,0.23239861,0.015335407,0.19380023,0.25292575,0.067888536,0.1767081,0.007554777,0.16168307,0.008236483,0.025757119,-0.015706439
BKR,-0.014172668,-0.023175396,-0.06016644,0.05474922,0.11641067,0.22418427,0.026744738,0.13283363,-0.020934127,-0.044075087,0.18041219,0.12808603,0.009214073,-0.0011479985,0.12574062,0.08205914,0.05036671,-0.008251401,-0.08048321,0.03579136,-0.024880635,-0.03156772,-0.029047096,0.0120184645,0.05676315,-0.013822432,-0.065492734,0.10660911,0.20237733,0.080928564,0.07456693,-0.023810677,-0.06753786,-0.007882595,0.054788955,0.18892702,0.17324294,0.0072453874,0.25450334,-0.0048167054,0.040702783,-0.001487311,0.008749317,0.08349709,-0.033294868,-0.01134419,0.22149725,0.1376574,0.038246974,-0.040077176,0.030573942,0.09721993,-0.0027057752,0.13263348,-0.045859136,0.11562644,0.040224418,-0.049209293,-0.035361547,0.036940567,0.16982247,0.034598142,0.21475634,0.10311803,0.19949399,0.14844783,0.06497679,0.05157777,-0.030370804,0.1498224,0.09508059,-0.005680993,-0.07514439,0.09544137,0.057048414,0.06902455,0.08834889,0.021824764,0.11944376,-0.023405965,0.09460464,0.17161101,0.1126584,-0.031037742,0.04247635,0.081111975,0.031011088,0.15986145,0.02089078,0.2311826,0.0003451053,0.19955793,0.26097566,0.07285671,0.1767057,0.00658565,0.17480959,0.00958354,0.028112333,-0.03422205
BLK,-0.010881506,-0.025252726,-0.055761836,0.052527405,0.115581036,0.2217967,0.022494428,0.13318174,-0.012440778,-0.05428251,0.18034235,0.11006369,0.010662556,-0.009943057,0.12630042,0.07962863,0.057327863,-0.0143457595,-0.08129379,0.01996398,-0.021141274,-0.033321906,-0.031785127,0.012892216,0.061619792,-0.010642685,-0.06693572,0.08994136,0.19483215,0.07859305,0.071317315,-0.039515093,-0.06503059,-0.017243598,0.040056437,0.179597,0.17404036,0.012129074,0.24736223,-0.023530766,0.049306966,-0.0038071088,-0.025155663,0.07341755,-0.039966203,-0.018470928,0.21714987,0.13607508,0.04081394,-0.054569777,0.029235456,0.08018565,-0.007946234,0.08362039,-0.050132595,0.11594746,0.041068666,-0.045673944,-0.035017252,0.036078002,0.16697611,0.034486733,0.14772907,0.100540705,0.19838005,0.14881079,0.060444254,0.051930945,-0.031945262,0.07226972,0.09281566,-0.02954857,-0.07436808,0.08551585,0.032962397,0.06441203,0.08514874,0.017977063,0.122870296,-0.022531994,0.09358764,0.171364,0.09930083,-0.041651174,0.042849243,0.082203835,0.017988728,0.121436834,0.020305457,0.22842516,-0.032303963,0.18632478,0.25252247,0.07375465,0.17678846,0.003807284,0.16621375,0.009347498,0.031362027,-0.046341605
BLL,0.07695033,-0.016720183,-0.053589746,0.05421537,0.11774118,0.21878421,0.03184414,0.13381779,-0.010181265,-0.00636252,0.18370576,0.11774246,0.1461974,-0.0053782575,0.12511963,0.08021647,0.23347282,0.013572581,-0.07927582,0.15856493,-0.02083912,-0.034340054,-0.019064391,0.0126624815,0.06070637,-0.013553033,-0.057285886,0.08885948,0.2117,0.07772072,0.08329183,-0.018925846,-0.064126246,0.051069103,0.23534454,0.21371391,0.1742278,0.119924605,0.2772713,-0.020616122,0.2170522,-0.0007865168,-0.025261436,0.07596341,-0.04072628,-0.010802528,0.21564119,0.1366513,0.038056467,-0.012382335,0.029455677,0.14395523,-0.0021725707,0.083986856,-0.04608302,0.116886444,0.03958177,-0.046778962,-0.0357495,0.036649175,0.1672024,0.03364182,0.14892206,0.09933553,0.20015791,0.1460901,0.06161618,0.06336583,-0.01522547,0.07434173,0.096526116,-0.02831164,-0.07377319,0.088043176,0.05361493,0.061985273,0.08571573,0.01879177,0.12090413,-0.022501238,0.092824385,0.16896415,0.08684045,-0.027642235,0.037118606,0.08460728,0.013048846,0.1289798,0.020704329,0.22635745,-0.018659856,0.19440632,0.25565177,0.077401675,0.17727247,0.02236911,0.1657229,0.0091279,0.027800545,-0.028769005
BMY,-0.021939415,-0.03059484,-0.051292174,0.052558795,0.11530604,0.22670406,0.025679734,0.13389215,-0.014469612,-0.062879615,0.18207937,0.13622454,0.015288208,0.005587537,0.12697229,0.079365194,0.05701407,-0.006836301,-0.08170524,0.044864826,-0.021542532,-0.0344449,-0.031650804,0.014366243,0.059707537,-0.009216463,-0.069592796,0.09264134,0.20224386,0.08285767,0.07025543,-0.010470435,-0.07007465,0.0017910432,0.061163362,0.19139257,0.17534965,0.0046257367,0.2559702,0.07888878,0.043661326,-0.006015606,0.018964972,0.073831104,-0.039476335,-0.01730029,0.22332594,0.13591799,0.04232847,-0.04105749,0.029221836,0.10025708,-0.008701721,0.31251967,-0.04119604,0.11597051,0.041326866,-0.0434271,-0.03445503,0.03649207,0.16725981,0.03475013,0.51569235,0.09572808,0.20061311,0.15745015,0.0655336,0.11843495,-0.028992532,0.24211489,0.111479394,0.0031707995,-0.07574943,0.08859705,0.1306135,0.063980564,0.08705654,0.027932726,0.12420812,-0.021632336,0.093733445,0.17736945,0.3431906,-0.010058215,0.09552328,0.10107743,0.04821813,0.40214124,0.020138673,0.22404356,0.026018204,0.1995203,0.25186658,0.097086266,0.17676806,0.004570052,0.1606595,0.009269226,0.0265239,0.014882203
BR,0.07443484,-0.01230865,-0.05269113,0.055854816,0.11475382,0.22108234,0.022874475,0.13319668,-0.011043837,-0.008422531,0.18038304,0.116087854,0.14232486,-0.0099716075,0.1255308,0.07990408,0.23114464,-0.018114766,-0.079796016,0.15619248,-0.02068313,-0.03393346,-0.01681631,0.013575673,0.05931702,-0.0103206495,-0.058012046,0.096876174,0.19355294,0.07978081,0.0700042,-0.012440585,-0.06382372,0.033348344,0.2284871,0.181076,0.17450106,0.118988514,0.24827157,0.0132902935,0.21372537,-0.0049458444,-0.011525162,0.07723065,-0.04107993,-0.017537082,0.21654543,0.13718645,0.041693334,-0.022741452,0.029238705,0.14388737,-0.0058438666,0.17511311,-0.04557202,0.11649361,0.039979305,-0.04596062,-0.03558708,0.03716388,0.16723417,0.035818428,0.29096484,0.098401465,0.19828284,0.1476732,0.060434457,0.08590046,-0.012904968,0.12858681,0.108491816,-0.01605552,-0.0742504,0.09177256,0.061875135,0.063663974,0.08735016,0.011885537,0.124688774,-0.022310995,0.09399723,0.17193401,0.19135952,-0.03003098,0.05566392,0.08446409,0.021016398,0.23134866,0.022679001,0.22403665,-0.0070829564,0.18099938,0.25560853,0.083613575,0.17742088,0.023569655,0.16780809,0.007968016,0.02540091,-0.014021441
BRO,-0.04022263,-0.031440403,-0.056300804,0.051621147,0.11710021,0.2195659,0.022729557,0.13371377,-0.013595104,-0.06160161,0.18223779,0.09512005,-0.0128497705,-0.010900322,0.12644768,0.07955501,0.029815687,-0.016443279,-0.079070225,0.026957132,-0.021593655,-0.0330815,-0.033806257,0.01312102,0.059051603,-0.010911542,-0.07279958,0.09423579,0.19387962,0.07951632,0.07277817,-0.04650934,-0.07604453,-0.014788754,0.02794612,0.17943963,0.17401758,-0.023804951,0.24980989,-0.05134038,0.0195843,-0.0039073564,-0.017948557,0.075081006,-0.03999362,-0.01895723,0.21614483,0.1361948,0.040569548,-0.05147887,0.029586269,0.07189192,-0.009677192,0.015727319,-0.053214557,0.116653256,0.041235145,-0.048634242,-0.03518085,0.036130346,0.16719563,0.034316868,0.040031224,0.099537484,0.19715455,0.1462517,0.060770154,0.014039069,-0.032563567,0.07481216,0.08301264,-0.02676154,-0.07449394,0.086535186,0.013847873,0.062329087,0.08459122,0.013288876,0.120190755,-0.022147447,0.09337634,0.16970861,-0.007702505,-0.045712925,0.021045744,0.07119045,0.01982588,0.02509801,0.02037149,0.22633044,-0.025436396,0.18015112,0.25096044,0.06512404,0.17709926,0.0014996193,0.16172037,0.008014504,0.024578433,-0.06291151
BSX,-0.00046695396,-0.022966944,-0.055460207,0.053165693,0.11903025,0.22270021,0.023101352,0.13584411,-0.01741056,-0.026286907,0.18162143,0.123533875,0.0741424,-0.007327415,0.12632287,0.079869926,0.12582941,-0.009846356,-0.08059271,0.06436829,-0.021407517,-0.03328631,-0.022158364,0.015342686,0.057873618,-0.009234828,-0.0679671,0.093919575,0.19632925,0.07804972,0.07199477,-0.03151279,-0.06161038,0.0034176353,0.13215686,0.18539864,0.17392264,0.050322503,0.25486293,-0.030232724,0.09791373,-0.003631156,-0.004992198,0.07799727,-0.039063066,-0.016298946,0.22050337,0.13493721,0.042303763,-0.0422486,0.027561707,0.111932226,-0.0132492,0.07223567,-0.04597239,0.11670101,0.041630354,-0.046931747,-0.034644324,0.036817864,0.16737245,0.035075292,0.13998932,0.09889377,0.19860771,0.14852522,0.059695102,0.051928096,-0.027905606,0.109984025,0.090038024,-0.01886332,-0.07358533,0.094814554,0.04425202,0.07428995,0.09825969,0.024559446,0.128222,-0.020978322,0.093714744,0.17236249,0.058834903,-0.038711622,0.036991835,0.07506528,0.018678956,0.09724772,0.020639509,0.2264284,-0.006454004,0.19699924,0.26300478,0.07090898,0.17712049,0.014989082,0.17011137,0.008788601,0.027756512,-0.042842258
BWA,0.0003468506,-0.023763299,-0.054037564,0.05422672,0.122093976,0.22040422,0.025470458,0.13233185,-0.012606291,-0.056333084,0.1833309,0.124501385,0.047029927,-0.005526524,0.124980666,0.0814207,0.103163734,0.0007539815,-0.08005722,0.083516665,-0.022356478,-0.03340494,-0.028113976,0.013806213,0.059503496,-0.011261493,-0.06874499,0.09821234,0.20531227,0.07765078,0.071930975,-0.030169297,-0.07219517,0.016241744,0.11023236,0.19578622,0.17405388,0.025686627,0.26219523,-0.018560737,0.08997577,-0.0016133152,-0.008414101,0.07803166,-0.042067632,-0.01556319,0.22146374,0.13694263,0.03935526,-0.029789707,0.028843315,0.09329428,-0.00405195,0.0965132,-0.04754185,0.1140618,0.04033222,-0.04325294,-0.034783643,0.03703687,0.1674714,0.033906147,0.1681836,0.09800067,0.19995685,0.14665857,0.061477657,0.052509524,-0.02303013,0.09258811,0.09743238,-0.020700991,-0.07388322,0.09104678,0.03400655,0.067865655,0.08645314,0.020251889,0.12449904,-0.024451857,0.093733475,0.17032942,0.109593146,-0.039529443,0.043443978,0.07742295,0.024381444,0.13325733,0.021398678,0.23488593,-0.01977631,0.19343908,0.25630447,0.07587899,0.17668821,0.0072475225,0.16606192,0.009725548,0.029770307,-0.041494813
BXP,-0.040269263,-0.02738225,-0.053135924,0.053048637,0.118355684,0.22193255,0.022251748,0.13387981,-0.011365604,-0.061747454,0.17893685,0.10017103,-0.009208754,-0.008284699,0.12614645,0.07956651,0.03425792,-0.015234705,-0.08175364,0.029283367,-0.020859132,-0.03394038,-0.033499744,0.012520961,0.05802284,-0.009088922,-0.071958706,0.083018266,0.19283749,0.08061794,0.06968298,-0.031686895,-0.07426974,-0.013640532,0.03149336,0.18225315,0.17408705,-0.021921,0.24982491,-0.06214587,0.023414154,-0.006089825,-0.0315156,0.070823014,-0.03992445,-0.01863483,0.21695934,0.13569874,0.043032058,-0.050949924,0.02817385,0.07980409,-0.014309665,-0.0012686104,-0.050162338,0.11712633,0.040614232,-0.046269935,-0.035137296,0.038663194,0.16682824,0.035835195,0.015984718,0.09763053,0.19665577,0.14535522,0.060454007,0.017401136,-0.033000063,0.0308989,0.08497708,-0.037507236,-0.074950784,0.08733679,0.008085506,0.05809554,0.08545545,0.015362786,0.124577105,-0.02118859,0.09471974,0.17005233,0.0056207813,-0.046960242,0.026793912,0.07232744,0.0091722645,0.014257602,0.02090878,0.22700456,-0.030336224,0.18332306,0.25169626,0.071181454,0.17691556,0.0028660968,0.1594351,0.008525625,0.025932178,-0.059228707
C,-0.00690376,-0.024134155,-0.053619135,0.052886315,0.116779424,0.22043009,0.024526022,0.1327949,-0.011735262,-0.04873841,0.18064097,0.10690406,0.022329073,-0.011387143,0.12672532,0.07985981,0.06206833,-0.0035177185,-0.07939966,0.040939778,-0.019733211,-0.032341555,-0.02998997,0.013983,0.06011743,-0.01012868,-0.06997143,0.09765065,0.19880831,0.07921275,0.07176973,-0.039465994,-0.06610732,-0.0023250803,0.07067002,0.18523076,0.17379698,0.0043095388,0.2518504,-0.04259063,0.049769405,-0.0033743754,-0.011401126,0.077098146,-0.037340555,-0.019637167,0.2172279,0.13516764,0.042382192,-0.04107586,0.028768297,0.0836974,-0.006933853,0.041865066,-0.048166994,0.1159355,0.042219996,-0.04519907,-0.036034014,0.034823343,0.1672562,0.034992643,0.07989964,0.098780885,0.19923022,0.14752904,0.060551193,0.03485004,-0.030971544,0.09135181,0.0905527,-0.020659387,-0.07394693,0.09159495,0.025120853,0.06439036,0.08666678,0.016004687,0.12199317,-0.022866208,0.094246894,0.17160812,0.020614794,-0.04148501,0.023568042,0.07494677,0.023322148,0.054201625,0.021519866,0.23076685,-0.018767005,0.18575615,0.25531632,0.06815011,0.17597945,0.005541768,0.16586478,0.008059423,0.02871932,-0.049212355
CAG,0.16280034,-0.0108389035,-0.05225462,0.059116837,0.12735061,0.2208548,0.030810326,0.13435228,-0.008541435,0.00125774,0.18125513,0.16908887,0.2712012,-0.008938564,0.12687403,0.078470245,0.4088621,0.040917132,-0.08195708,0.29611242,-0.020178718,-0.03522622,-0.030415744,0.014844745,0.06029583,-0.010165442,-0.056153648,0.12030864,0.20240767,0.07941597,0.10403306,0.04015713,-0.049714826,0.13611118,0.41011256,0.22028029,0.1788714,0.21354383,0.29997414,0.11148123,0.35683173,0.0060847253,0.017768566,0.078616574,-0.031340517,0.010146014,0.22632731,0.13435684,0.055091005,0.030216983,0.028553613,0.09831373,-0.006240703,0.3753933,-0.031341683,0.11427526,0.051184755,-0.016228296,-0.035516586,0.03684946,0.16974099,0.03508504,0.6050568,0.09699331,0.20297,0.14907268,0.06025086,0.17681691,-0.0019407533,0.26423964,0.1307211,0.022566356,-0.073817834,0.09819386,0.13442329,0.06529243,0.088373885,0.039512146,0.12524004,-0.019104348,0.093997814,0.17551157,0.4164481,0.009746747,0.10501379,0.10281509,0.031126466,0.48635793,0.029296342,0.22209686,0.043909468,0.19963917,0.2538299,0.09642856,0.1774445,0.0041885264,0.163838,0.008451235,0.027301636,0.057622965
CAH,0.01983313,-0.029902276,-0.052314714,0.056347355,0.11900054,0.2528492,0.02389203,0.13518706,0.016837725,-0.04369364,0.18172494,0.23877549,0.06731471,0.028645048,0.124807954,0.08050926,0.11848692,0.006539985,-0.08365129,0.08471404,-0.01933886,-0.03288211,-0.02551579,0.016553804,0.061352685,-0.013868341,-0.063496485,0.10264952,0.19854578,0.08021866,0.06772084,0.103356056,-0.071590036,0.021909421,0.1282702,0.1809986,0.17426768,0.04026676,0.24784152,0.17839304,0.10067166,0.018908642,0.05189596,0.07811989,-0.014211065,-0.01798756,0.24415487,0.13605943,0.037841387,-0.0313942,0.02972083,0.086526595,-0.005872041,0.52858126,-0.005788833,0.118412755,0.038520508,0.00021873415,-0.03354683,0.037081856,0.16631374,0.03385867,0.85475475,0.097335264,0.2060896,0.14694035,0.06145022,0.2582682,-0.028220063,0.3494049,0.13882375,0.007241763,-0.07348919,0.09291799,0.2207861,0.06638826,0.09515981,0.08752287,0.1265029,-0.021759268,0.09211925,0.17612372,0.570133,0.04678036,0.13579407,0.111662485,0.044900388,0.6907991,0.019570401,0.22466943,0.08072837,0.26015067,0.25801373,0.0924502,0.17745973,0.0083498955,0.16596444,0.009406213,0.054531157,0.13299444
CAT,0.01088178,-0.023306783,-0.05301903,0.05428583,0.12013674,0.22330186,0.024039544,0.13196082,-0.011733266,-0.052526493,0.18296257,0.12912257,0.043403838,-0.007557722,0.12534238,0.08428902,0.09658174,-0.010857325,-0.08095771,0.050623357,-0.02024906,-0.03311998,-0.030878566,0.012957104,0.05497178,-0.0112799425,-0.066419125,0.09661487,0.1987277,0.0777514,0.0707204,-0.030321926,-0.060672693,-0.003481986,0.08141148,0.18354262,0.17385338,0.036828715,0.25372976,0.015308656,0.08641695,-0.0024115145,-0.011584457,0.07590841,-0.03995053,-0.01989448,0.22043937,0.13641149,0.039674483,-0.042843886,0.029023504,0.093180716,-0.0067325756,0.14508131,-0.043543003,0.11819078,0.040350616,-0.044526413,-0.03577166,0.038532175,0.16747895,0.034324773,0.25422528,0.098003834,0.19984806,0.1508116,0.06099637,0.053931937,-0.029589474,0.1520112,0.09628693,-0.0026489869,-0.07461749,0.08842786,0.057317544,0.0659602,0.085994154,0.02480336,0.123437665,-0.023648906,0.09373325,0.17184089,0.14848134,-0.024470694,0.045297384,0.08110574,0.019349493,0.17818227,0.022297267,0.23228255,-0.007828594,0.1995661,0.254484,0.076361,0.17670088,0.008847378,0.16691974,0.009926345,0.030198488,-0.036460724
CB,-0.036739793,-0.027723186,-0.05564734,0.052749205,0.11742492,0.22102302,0.0227978,0.13449922,-0.014084771,-0.0644621,0.18359894,0.100773975,-0.023274127,-0.010850064,0.12575273,0.07923342,0.015048169,-0.016906695,-0.08247459,0.015562668,-0.020572664,-0.03334676,-0.034753878,0.014202662,0.05754854,-0.011041855,-0.07434301,0.09223986,0.19705112,0.07963306,0.071180075,-0.037771814,-0.071445316,-0.021410424,0.013251457,0.17886296,0.17471904,-0.017328605,0.24640295,-0.05435827,0.008631401,-0.0031076074,-0.021917788,0.07398714,-0.03803616,-0.01942841,0.2165047,0.13639912,0.039956518,-0.054467227,0.029534074,0.07439682,-0.008919194,0.012210995,-0.05028724,0.1149658,0.04025986,-0.046450272,-0.03546274,0.035759557,0.16669591,0.034392662,0.039808262,0.09867973,0.19678251,0.14857842,0.060458936,0.029794954,-0.034002915,0.06360522,0.090079114,-0.030611426,-0.07419196,0.08598951,0.02371359,0.06211941,0.083969474,0.009772183,0.122910626,-0.022155002,0.09316644,0.16974181,0.0006059259,-0.042554505,0.023740508,0.073762834,0.016728751,0.04150843,0.020026157,0.2268396,-0.029998785,0.18247919,0.2511957,0.06712218,0.17751426,0.0026109628,0.16001305,0.0075485855,0.024549678,-0.050976418
CBOE,-0.017679937,-0.030564737,-0.055209443,0.052954312,0.1158383,0.21871574,0.026469015,0.13606815,-0.011686895,-0.061945237,0.18143614,0.13032372,0.021328064,0.0015142299,0.12552261,0.079937965,0.06496617,-0.008212686,-0.08077484,0.05202555,-0.020935161,-0.032947626,-0.033054706,0.011882018,0.056217276,-0.009873809,-0.06891203,0.087464765,0.20206532,0.07773648,0.07337919,0.011393614,-0.07551768,0.0047832523,0.065935984,0.19134748,0.17369992,-0.00043644104,0.2565207,0.021577494,0.05067662,-0.0056140088,-0.019355427,0.072919376,-0.033872824,-0.017619144,0.21778533,0.13758576,0.03957348,-0.041859597,0.028607123,0.07856651,-0.009302171,0.18506533,-0.036026105,0.117195725,0.03949885,-0.03177526,-0.035566613,0.03616679,0.16649128,0.034680717,0.3118742,0.099685624,0.19883975,0.14926676,0.063212186,0.1075708,-0.028131053,0.14253023,0.11832988,-0.03198682,-0.07446736,0.08839611,0.08777501,0.063034475,0.08470301,0.030884309,0.119659245,-0.022122309,0.09414144,0.17122272,0.18335229,-0.011719572,0.052827254,0.090898946,0.015761267,0.2578451,0.02430636,0.22344868,0.009009635,0.19574237,0.25332507,0.066916585,0.17856173,0.0038371906,0.1618861,0.010696337,0.035065524,0.016175326
CBRE,-0.028982883,-0.027208202,-0.055142637,0.05247736,0.11533772,0.22121942,0.022503331,0.13311727,-0.013781732,-0.057027645,0.18194497,0.104091495,-0.01102376,-0.009506319,0.12575899,0.08043631,0.032075435,-0.018376619,-0.07938808,0.0007917583,-0.021236079,-0.032633808,-0.03469234,0.013318952,0.060120843,-0.010323618,-0.06900426,0.09895487,0.19387174,0.080144785,0.074110374,-0.038065698,-0.06952468,-0.02609085,0.022051837,0.17877997,0.17350625,-0.0043115104,0.24834892,-0.034525424,0.024392096,-0.0031421334,-0.0078022163,0.07731563,-0.03799081,-0.016257044,0.21634188,0.13647039,0.04098752,-0.05054372,0.027945902,0.0891166,-0.01056149,0.058948666,-0.0479294,0.11723957,0.041244205,-0.049073018,-0.035012268,0.0378679,0.1681219,0.035170835,0.103655815,0.09880542,0.1983373,0.14667769,0.059874438,0.037060037,-0.028934198,0.10204125,0.09031424,-0.017526224,-0.07478459,0.09304754,0.029696848,0.060883556,0.08477008,0.011077827,0.12057814,-0.021859668,0.094676435,0.17221516,0.042214885,-0.040139228,0.03413704,0.07580211,0.023914091,0.07354626,0.020335115,0.22946095,-0.014546737,0.18380001,0.25260472,0.073690735,0.17739812,0.008790344,0.1609269,0.009275213,0.027188558,-0.04828008
CCI,-0.04238092,-0.030105412,-0.0525057,0.051705837,0.11717585,0.22299363,0.022551164,0.13329518,-0.0103766415,-0.062331542,0.18109076,0.11664094,-0.020685181,-0.012568168,0.12531644,0.08089672,0.015235059,-0.013661709,-0.0801902,0.015647158,-0.020356925,-0.032998294,-0.033588976,0.0138098635,0.060649242,-0.010541959,-0.06862259,0.09458459,0.19677226,0.08106571,0.07209046,-0.035333462,-0.07349293,-0.019484796,0.018806145,0.18008393,0.17492867,-0.020747885,0.24862786,-0.056362197,0.0067602247,-0.0045186915,-0.027575808,0.07432746,-0.040956244,-0.013858037,0.21857625,0.13693154,0.04174829,-0.051931806,0.028889975,0.077026576,-0.012701631,0.0041309893,-0.047890052,0.11693243,0.040386945,-0.050607346,-0.03371893,0.038233664,0.16750303,0.035985738,0.03691971,0.09863077,0.1971277,0.14740117,0.06141689,0.034653112,-0.033677287,0.05956353,0.08920365,-0.030857768,-0.074635915,0.08650287,0.024110572,0.059050664,0.08490965,0.016317151,0.11980325,-0.022158783,0.09438972,0.1724706,0.0049103796,-0.042473283,0.024934411,0.07637975,0.0146010965,0.03755916,0.020939894,0.22543795,-0.030642508,0.19307469,0.25050753,0.06792699,0.17734328,0.0029948056,0.16074842,0.009066105,0.024669304,-0.05489917
CDNS,0.14838368,-0.008471206,-0.056243114,0.05490636,0.115215495,0.21823014,0.024471145,0.13557498,-0.015411492,0.022641473,0.18333855,0.10730452,0.24860504,-0.0048576184,0.12394602,0.07906833,0.3633443,-0.008842277,-0.080862425,0.26333213,-0.024385622,-0.03221933,-0.008719454,0.011870839,0.06260619,-0.015422844,-0.048696045,0.098278575,0.19844803,0.07973537,0.06986904,-0.030977685,-0.04793475,0.08363223,0.37010494,0.18236868,0.17451766,0.20668699,0.24696922,-0.027774345,0.34064016,0.0026075207,-0.0032186452,0.07925266,-0.03980244,-0.0009081699,0.2162797,0.13696823,0.036520205,0.0062896144,0.030114954,0.1741652,0.008076325,0.074926704,-0.047907226,0.117785126,0.038967233,-0.045346715,-0.034754954,0.035253875,0.16914305,0.033495758,0.13222227,0.10165088,0.19759624,0.14908358,0.061816838,0.045707278,-0.0046922863,0.10224973,0.095281236,-0.019145355,-0.0750251,0.0939586,0.035517596,0.06630277,0.093393736,0.0124856625,0.12691508,-0.023916166,0.091471255,0.1712656,0.08617787,-0.037279166,0.03903269,0.079420455,0.020787112,0.108115144,0.020739745,0.22984552,-0.00981086,0.1879953,0.26755288,0.07368018,0.17750719,0.031816848,0.1812709,0.009231724,0.028118797,-0.040287558
CDW,0.097730264,-0.015875552,-0.060270425,0.053435795,0.117650405,0.22033505,0.028483294,0.13676277,-0.017626343,-0.0005790256,0.18194796,0.10779318,0.17147745,-0.006189702,0.12505324,0.082413524,0.2648105,0.0016126917,-0.080744475,0.18615234,-0.023754751,-0.03276747,-0.020081598,0.011223476,0.058641654,-0.011904694,-0.05527223,0.10910108,0.20358212,0.08120681,0.069577895,-0.018502258,-0.05724708,0.043731812,0.26806355,0.19568893,0.17482919,0.14367364,0.2580759,-0.007455554,0.24778734,-0.002204962,0.006825112,0.08239679,-0.038010105,-0.014286464,0.21662606,0.13580935,0.039615408,-0.01140102,0.028199246,0.14894542,-0.00023889169,0.12269922,-0.044757172,0.114268824,0.03987644,-0.043392763,-0.035105802,0.035330936,0.1682275,0.03410533,0.20416886,0.10277528,0.19836625,0.14719397,0.060288623,0.058370337,-0.011773109,0.14445516,0.0987276,-0.0071022995,-0.07562912,0.0944779,0.05154592,0.06388867,0.089149505,0.01822758,0.124197856,-0.021394223,0.09285799,0.1722295,0.10405988,-0.029969987,0.025651969,0.082867004,0.032765362,0.15479651,0.021422084,0.22530478,0.0021230392,0.1848293,0.26080552,0.07053909,0.17796671,0.02280341,0.17082776,0.010725528,0.029781543,-0.028055705
CE,0.025819216,-0.02581095,-0.053516254,0.053521395,0.115489356,0.21933308,0.023632392,0.13250451,-0.012036961,-0.05147064,0.18082127,0.10496988,0.07062395,-0.0073650964,0.12673205,0.08058503,0.12930572,0.00595028,-0.08119433,0.095535845,-0.020966327,-0.033098508,-0.030460872,0.012080964,0.056240734,-0.0096564535,-0.06879538,0.10328128,0.19904399,0.07946472,0.0702943,-0.040546343,-0.07200386,0.027318891,0.1323567,0.18256463,0.17503576,0.04769023,0.25212973,-0.02930434,0.11157013,-0.0032197349,-0.008838676,0.07862289,-0.03970937,-0.01693334,0.21695197,0.13583529,0.040783294,-0.03132853,0.028875828,0.090866074,-0.0097868685,0.068099625,-0.05039223,0.116285935,0.041480437,-0.04475347,-0.03530242,0.037875194,0.16682346,0.034076177,0.12672299,0.098703615,0.19871342,0.14910924,0.06029101,0.04196584,-0.02650787,0.10724557,0.09113568,-0.018243842,-0.07482129,0.09177617,0.030545054,0.06138667,0.086509064,0.016933179,0.12312433,-0.022763355,0.09351778,0.17027059,0.08079953,-0.042518437,0.04022853,0.076434836,0.02408714,0.103059925,0.02110168,0.23195074,-0.01129365,0.18324274,0.25604627,0.074121915,0.17654103,0.008835904,0.16637889,0.008779392,0.028581854,-0.050413445
CERN,-0.010881506,-0.025252726,-0.055761836,0.052527405,0.115581036,0.2217967,0.022494428,0.13318174,-0.012440778,-0.05428251,0.18034235,0.11006369,0.010662556,-0.009943057,0.12630042,0.07962863,0.057327863,-0.0143457595,-0.08129379,0.01996398,-0.021141274,-0.033321906,-0.031785127,0.012892216,0.061619792,-0.010642685,-0.06693572,0.08994136,0.19483215,0.07859305,0.071317315,-0.039515093,-0.06503059,-0.017243598,0.040056437,0.179597,0.17404036,0.012129074,0.24736223,-0.023530766,0.049306966,-0.0038071088,-0.025155663,0.07341755,-0.039966203,-0.018470928,0.21714987,0.13607508,0.04081394,-0.054569777,0.029235456,0.08018565,-0.007946234,0.08362039,-0.050132595,0.11594746,0.041068666,-0.045673944,-0.035017252,0.036078002,0.16697611,0.034486733,0.14772907,0.100540705,0.19838005,0.14881079,0.060444254,0.051930945,-0.031945262,0.07226972,0.09281566,-0.02954857,-0.07436808,0.08551585,0.032962397,0.06441203,0.08514874,0.017977063,0.122870296,-0.022531994,0.09358764,0.171364,0.09930083,-0.041651174,0.042849243,0.082203835,0.017988728,0.121436834,0.020305457,0.22842516,-0.032303963,0.18632478,0.25252247,0.07375465,0.17678846,0.003807284,0.16621375,0.009347498,0.031362027,-0.046341605
